var _netData = {"layers":[{"0":{},"1":{},"2":{},"3":{},"4":{},"5":{},"6":{},"7":{},"8":{},"9":{},"10":{},"11":{},"12":{},"13":{},"14":{},"15":{},"16":{},"17":{},"18":{},"19":{},"20":{},"21":{},"22":{},"23":{},"24":{},"25":{},"26":{},"27":{},"28":{},"29":{},"30":{},"31":{},"32":{},"33":{},"34":{},"35":{},"36":{},"37":{},"38":{},"39":{},"40":{},"41":{},"42":{},"43":{},"44":{},"45":{},"46":{},"47":{},"48":{},"49":{},"50":{},"51":{},"52":{},"53":{},"54":{},"55":{},"56":{},"57":{},"58":{},"59":{},"60":{},"61":{},"62":{},"63":{},"64":{},"65":{},"66":{},"67":{},"68":{},"69":{},"70":{},"71":{},"72":{},"73":{},"74":{},"75":{},"76":{},"77":{},"78":{},"79":{},"80":{},"81":{},"82":{},"83":{},"84":{},"85":{},"86":{},"87":{},"88":{},"89":{},"90":{},"91":{},"92":{},"93":{},"94":{},"95":{},"96":{},"97":{},"98":{},"99":{}},{"0":{"bias":0.13911501856739925,"weights":{"0":-0.15940360321837713,"1":-0.02308182397347722,"2":-0.1877056339493697,"3":-0.16506699142159284,"4":-0.15261741855356148,"5":0.029576727681133046,"6":-0.15046383763837864,"7":0.03059006707870699,"8":0.18498610735696505,"9":0.13841932067087426,"10":-0.019894500423296994,"11":0.06085775671535579,"12":-0.12008313208207204,"13":0.11570416513804387,"14":0.18505781621235365,"15":-0.12904498059411287,"16":0.11026776435314788,"17":-0.02517172663290202,"18":-0.033902199730418164,"19":-0.15203944378951548,"20":-0.19701130424411312,"21":-0.14747495525213103,"22":-0.15662566681227671,"23":-0.04390358818778455,"24":0.1450866042928878,"25":0.19007889113766152,"26":0.02251210755800036,"27":-0.18097864917727005,"28":0.024719551837832598,"29":0.11703683561292282,"30":0.17618310173012786,"31":0.13468107329681647,"32":-0.05634493531393647,"33":-0.17238994976499317,"34":-0.0165033824033005,"35":0.1531672184359061,"36":0.13147998764693541,"37":-0.1786721431221241,"38":-0.011054807214155065,"39":-0.06413177079872177,"40":0.031696564671252835,"41":-0.08835144788605417,"42":0.016669973648835063,"43":0.08559903660210551,"44":0.18928196029300082,"45":0.10632093133493543,"46":0.1584006838850682,"47":0.17221944782606935,"48":0.10191226909036985,"49":0.12639407564001484,"50":-0.15967444333142164,"51":0.021170674963885323,"52":-0.10057282058461428,"53":-0.10630617194389899,"54":0.16194882752710088,"55":-0.1118502972819253,"56":-0.12203589871032272,"57":0.01247803688201212,"58":-0.17234429344339286,"59":-0.18302398443920628,"60":-0.1831718662963806,"61":0.049490820718338,"62":-0.1337468134238427,"63":-0.14243095881465273,"64":0.03948819925143707,"65":0.11436913018883979,"66":0.03180854757376557,"67":-0.06232339460312409,"68":0.046748926109304485,"69":0.1408157916846898,"70":0.1995861328119839,"71":0.03492768581909002,"72":-0.13254013133820897,"73":-0.1761249790678632,"74":0.11208563969241031,"75":-0.013076419149968054,"76":-0.11436954392737965,"77":-0.06396759813520342,"78":-0.03276968246887131,"79":0.18080411055764173,"80":0.08797796760307804,"81":-0.09440252198973569,"82":-0.025376725843230388,"83":0.053264379590915865,"84":0.21122304881554793,"85":0.03533364718352288,"86":-0.08191428770679299,"87":-0.059449752860140585,"88":0.19127933321422358,"89":0.09058117346825878,"90":0.019379905606921412,"91":0.09137267332108659,"92":-0.12502858784282267,"93":0.06783069970993161,"94":0.06518399504776085,"95":-0.1457557763290836,"96":0.08587787221255035,"97":-0.09757722494062901,"98":0.16122974376894622,"99":0.09158756263266049}},"1":{"bias":-0.07222188747889863,"weights":{"0":0.04616891362314239,"1":-0.17760379473804194,"2":0.10900939711844024,"3":0.08292113467991029,"4":0.04750260287105393,"5":-0.18229802087355665,"6":-0.13699758277759738,"7":-0.04747457962326423,"8":0.15167898793924792,"9":0.07607975138007698,"10":0.1265501764246105,"11":0.06691289253197301,"12":-0.09100443048401141,"13":0.15991785799718947,"14":-0.008282146867639593,"15":0.05032721630102954,"16":0.17570482871329243,"17":0.11400936572050223,"18":-0.17077038843944464,"19":-0.12829272900881436,"20":-0.09490110157946909,"21":-0.17697600036157446,"22":0.16933006572950685,"23":0.20123987829225087,"24":-0.022133970560733667,"25":-0.18090104242928523,"26":-0.1880103561922892,"27":-0.17273379487785587,"28":-0.0548059405931864,"29":-0.12123854261510157,"30":0.17591340880281348,"31":-0.06331844122310835,"32":-0.01699208676189197,"33":-0.07968710507582348,"34":-0.007319305377238953,"35":-0.005900874599263556,"36":0.04873833996560896,"37":0.16213335384250904,"38":-0.13202646299078907,"39":0.11912548120581118,"40":0.015241306566962792,"41":-0.1805770002994245,"42":0.026864497946099287,"43":-0.10738629480931756,"44":-0.04966030624448403,"45":0.03577665112142693,"46":0.027975365194575,"47":-0.09433147772997558,"48":0.0727069322518757,"49":-0.17363365211244877,"50":-0.046566144543573565,"51":-0.07682616713706782,"52":-0.18710286493387962,"53":0.13084471156755742,"54":0.0873763356459857,"55":0.19220282594357543,"56":0.0037125017180676535,"57":0.05259568131205046,"58":0.08772773306294722,"59":0.16069488015526895,"60":-0.11459205176066323,"61":0.1247426625888808,"62":0.09986809598552218,"63":0.1931294359602721,"64":-0.057476343826482354,"65":0.037493952682224295,"66":-0.1583202118844912,"67":0.2039319971624796,"68":-0.08267232678598727,"69":-0.04640703750961986,"70":-0.0653067529635521,"71":-0.14619969680296807,"72":-0.06691959942989115,"73":-0.05558407806600672,"74":-0.176099169622045,"75":0.1255811782613084,"76":-0.08511674788966511,"77":0.05825661388951388,"78":0.1166522470489887,"79":0.02765008380689532,"80":-0.1592047089571067,"81":0.15799010063508612,"82":0.06385882913820132,"83":-0.010459414599933334,"84":-0.20930932756098403,"85":-0.09039121768971961,"86":-0.015194796931971379,"87":-0.045401535387579156,"88":-0.14425021923010928,"89":0.13138874806744205,"90":-0.2158366288874906,"91":0.001780667517142689,"92":-0.20584792596699908,"93":0.0008245982158578504,"94":-0.03480430602701132,"95":-0.010709157640527274,"96":-0.21266940638402498,"97":0.10665133021615229,"98":-0.08976814059905576,"99":-0.04697130593424434}},"2":{"bias":-0.0615589407272637,"weights":{"0":0.0002804740332066902,"1":0.10027183955535296,"2":0.08432283448055389,"3":0.15280274795368315,"4":0.1819408738054335,"5":-0.03576300106942654,"6":0.10880461875349284,"7":0.020461829379200935,"8":0.19854737985879184,"9":-0.14501608796417714,"10":0.1509912728331983,"11":-0.06687273839488625,"12":0.03411148497834801,"13":0.013258201535791159,"14":-0.1156225834041834,"15":-0.011921805143356334,"16":-0.11672195373103023,"17":-0.15003289375454187,"18":0.031936714611947525,"19":-0.0586806196719408,"20":-0.07550225174054503,"21":-0.043469329271465545,"22":-0.024801493622362614,"23":-0.08452768195420504,"24":0.008944823872298002,"25":-0.0048985970206558704,"26":0.17698172926902772,"27":0.009218447655439388,"28":-0.04774580691009761,"29":0.09544335519894959,"30":0.11837005689740182,"31":-0.031938967201858764,"32":-0.18472139285877348,"33":-0.07351396856829526,"34":-0.008469611965119833,"35":0.19285188829526306,"36":0.040792744886130106,"37":0.15475327568128705,"38":-0.11287605380639434,"39":0.10429620202630757,"40":0.1459266672842205,"41":-0.0735965515486896,"42":-0.1382799099199474,"43":-0.11744400691241026,"44":-0.14574884567409754,"45":-0.10240855421870948,"46":0.03789716958999634,"47":-0.08585019744932652,"48":-0.05429733889177443,"49":-0.11379449209198356,"50":0.14445345634594559,"51":-0.017840415798127646,"52":0.1721421959809959,"53":-0.12095813453197479,"54":0.16521886317059398,"55":-0.04727875310927629,"56":0.13154101073741914,"57":-0.05155479228124024,"58":-0.17158548533916473,"59":0.044116265419870626,"60":0.09250418497249485,"61":0.07037248825654385,"62":0.13352530552074315,"63":-0.14377735778689385,"64":0.19643652895465497,"65":0.04783630035817624,"66":-0.14397105053067208,"67":0.14784024823457004,"68":-0.03406046060845255,"69":0.04392182705923914,"70":0.07827431680634617,"71":0.10462065599858761,"72":-0.05700090285390616,"73":-0.11921146651729941,"74":-0.06664178427308798,"75":-0.1752318563871086,"76":-0.17111980598419907,"77":-0.09105122145265342,"78":0.12002339111641053,"79":0.16845301082357766,"80":0.0420991275459528,"81":0.043157565779984,"82":-0.10228873575106263,"83":0.004824605118483316,"84":0.02888650503009557,"85":-0.1802714925259352,"86":0.07636546771973374,"87":0.15641984865069392,"88":0.1494473537430167,"89":0.12618948305025696,"90":-0.09660482360050082,"91":-0.18225513128563764,"92":0.1106261465698481,"93":0.1827072982676327,"94":0.11673078779131174,"95":-0.036920810770243395,"96":0.07213262245059016,"97":-0.08875028686597944,"98":0.1508347248658538,"99":-0.05766862062737346}},"3":{"bias":-0.002218490049369916,"weights":{"0":-0.011792047731050602,"1":0.18213432092386464,"2":0.11255240177252199,"3":0.0728364205607578,"4":-0.0007512835976146669,"5":0.08677816173670734,"6":0.15207492950062892,"7":0.05096532811088406,"8":0.11143717839736296,"9":-0.16022588194670243,"10":-0.1287082675857983,"11":-0.13253822888569994,"12":-0.037104341382471664,"13":0.05664131181923588,"14":-0.04189696822987205,"15":-0.03647196603329935,"16":0.1341934493972502,"17":0.07152670320732442,"18":-0.05725191836837238,"19":0.17759266464648685,"20":-0.1339314052318105,"21":-0.13175858914243146,"22":-0.10704507188184065,"23":0.17631670857457357,"24":-0.0344572353303706,"25":0.11762753917513337,"26":0.11288247221380548,"27":0.1589717829354666,"28":0.05505597399858616,"29":0.029973461937764137,"30":-0.07064595076306854,"31":0.12861743803288664,"32":-0.019174948230223192,"33":-0.05093607069249866,"34":-0.11168605048369169,"35":-0.1197027437349676,"36":-0.0928364723276884,"37":-0.16172752027210163,"38":-0.0070726383587981605,"39":-0.19790633007802755,"40":0.12441799258813263,"41":-0.1646813491726605,"42":-0.10584855247288943,"43":-0.06988605125293798,"44":-0.05970593364909291,"45":0.042895345691916706,"46":-0.16075855319025967,"47":0.054733823226824685,"48":-0.11114623496026546,"49":-0.10870028982761894,"50":0.001148650334266587,"51":0.04127481659620453,"52":-0.1290368676646991,"53":0.1214951736675674,"54":0.01358936520444537,"55":0.1951086332090199,"56":-0.1936030789292,"57":-0.011230803467333322,"58":0.1204077073605374,"59":0.17142803557217123,"60":-0.15410610945719913,"61":0.008303908258676523,"62":-0.013361353625273766,"63":-0.0975912051518545,"64":-0.10197369880770343,"65":-0.1331003609577632,"66":0.015626447378967297,"67":-0.0984829979768996,"68":-0.12515860761203448,"69":-0.1772056882509998,"70":0.15356277371500016,"71":0.013726544875158146,"72":0.006147950357411048,"73":-0.14543110031041254,"74":0.07945837967424364,"75":-0.14303470212184632,"76":0.07146117139271087,"77":-0.0787175888386035,"78":-0.015051189422247906,"79":-0.03627773826131752,"80":0.19786194303667728,"81":-0.018214743405831485,"82":0.07897189757087833,"83":-0.016387557378965762,"84":0.035503576391706065,"85":-0.022547865921494468,"86":-0.1839877581872779,"87":-0.13911982748641782,"88":-0.03343230479113057,"89":-0.18688690331828708,"90":-0.1793112845922386,"91":0.017785203764514684,"92":-0.11816296143375997,"93":-0.12997841126161427,"94":0.02443996499453721,"95":0.12998027680391813,"96":-0.015704462846889353,"97":0.028437487773916793,"98":0.07245498313005194,"99":0.19045849105829574}},"4":{"bias":-0.19184699098771482,"weights":{"0":-0.006390363346086012,"1":0.10455090758283171,"2":0.17167605960192558,"3":0.1604930403489973,"4":0.281757719004719,"5":0.11178476898019024,"6":-0.02464269079806856,"7":0.06808277300580459,"8":0.1032684743313988,"9":0.336710554909418,"10":0.20248563727959715,"11":0.30604959993885955,"12":0.08372341518449203,"13":0.1397977272989639,"14":0.09282772450016262,"15":0.15366197076110258,"16":-0.02589747841344681,"17":0.23822112744776708,"18":0.1413757885671117,"19":0.20138178571893378,"20":-0.08551954064435183,"21":0.36444115528520743,"22":0.08113591445560057,"23":0.29889235742984593,"24":0.01322691773887384,"25":0.31677345795133766,"26":0.12239112511037784,"27":0.3936639401408308,"28":0.13757506971803982,"29":0.14139866824105105,"30":0.10447945970774467,"31":-0.02093042726802969,"32":-0.17822997365060003,"33":0.02614534905447125,"34":-0.12927390351889906,"35":0.09436186569779936,"36":-0.1312818745640548,"37":-0.09195989041323417,"38":-0.09433608210305583,"39":0.16434841083177265,"40":0.02317992250756054,"41":0.037895857346119194,"42":-0.07352585886809918,"43":0.006199851896053619,"44":-0.030900167174720983,"45":-0.03392391434180299,"46":0.011142910920648588,"47":0.07426074661682677,"48":0.28192346231325294,"49":-0.049657662856537145,"50":0.23997582121385758,"51":0.1800711148338204,"52":0.03905520778449465,"53":-0.10664501294813378,"54":0.02744080339963941,"55":0.166469201584886,"56":0.33627587895905375,"57":-0.09743986738927726,"58":0.17758468241820355,"59":-0.15647077990409455,"60":0.38095272458012003,"61":0.14942983995225656,"62":0.26285926166127016,"63":0.09158126489064715,"64":0.4942253157029426,"65":-0.1100299414645228,"66":0.3560103817661717,"67":0.12312854520231706,"68":0.3998579799874721,"69":0.10261158571565866,"70":0.3266842711128578,"71":0.012792962205903471,"72":0.16456990249040745,"73":0.3817987873855652,"74":0.33078976547456557,"75":0.36668383275710886,"76":0.1256007551730222,"77":0.18652860093916543,"78":0.20498366719100788,"79":0.4639930487738669,"80":0.4027109713761837,"81":0.11466870753493279,"82":0.07952138835516546,"83":0.37502602959210685,"84":0.36717830649961203,"85":0.3275043671859251,"86":0.12252436582901442,"87":0.10092310500715944,"88":0.06842375510609895,"89":0.21521810323554824,"90":0.012337790528213929,"91":0.4333129354105973,"92":0.22313026538641412,"93":0.10895973957928008,"94":0.07663142470135795,"95":0.3985591127186367,"96":0.24758469145084885,"97":0.3106067660247905,"98":0.2626702198997587,"99":0.33076125146043445}},"5":{"bias":-0.02009803964154747,"weights":{"0":0.028062185496358943,"1":-0.20024575341910272,"2":0.014369028483433348,"3":-0.22868067811064186,"4":-0.06043476682364071,"5":0.07659426217146456,"6":0.04953731875929396,"7":-0.09069537718601285,"8":-0.16675504842790714,"9":-0.19502068034194164,"10":0.09534364964642009,"11":-0.13778393820680424,"12":-0.005039200766466721,"13":0.10152614101842053,"14":0.10768958853995926,"15":-0.02789058935858532,"16":0.08698799716709532,"17":-0.19417374805573795,"18":0.02286591875846965,"19":0.008231549194110866,"20":0.12585517046998318,"21":-0.26781240368019316,"22":0.14542790973234349,"23":-0.11627444469800095,"24":0.16160409932275208,"25":-0.1279381559098415,"26":-0.06458269529086635,"27":-0.19659959507176192,"28":-0.19068723981382354,"29":-0.060233115150036744,"30":0.15105848966145735,"31":-0.12806813004161344,"32":-0.07168701067839549,"33":-0.20507452850839872,"34":-0.028215300051638074,"35":0.09829869426279039,"36":-0.11237140200058245,"37":0.08189007112482868,"38":0.0011601268978355549,"39":0.005487202238578571,"40":0.02797867607786049,"41":-0.09250920207016686,"42":0.014794567348079825,"43":-0.17130578139635882,"44":0.0632098686620767,"45":0.028796572989091277,"46":-0.10261366985483748,"47":-0.20220964119571078,"48":-0.0379925491222452,"49":-0.006678058025856802,"50":0.03340839082989999,"51":-0.0791973324225264,"52":0.10734552133721159,"53":-0.13939297677245094,"54":-0.10722817724359734,"55":0.13964044354872485,"56":-0.22763491032105115,"57":0.06651299365471838,"58":0.09198983606648216,"59":0.07061968108840778,"60":-0.21978720125726364,"61":0.0905060810165361,"62":0.006164682671009064,"63":-0.1544447655857356,"64":-0.27009020876645845,"65":-0.21691929894871181,"66":-0.05125992348716904,"67":-0.16510750800803,"68":-0.14501712266496242,"69":0.06270813039659676,"70":0.12067379863754181,"71":0.10528857754034963,"72":0.025726310530228346,"73":-0.058948196142242296,"74":0.003032849743335538,"75":-0.15064174525362803,"76":0.13230409417944394,"77":0.11361682052737049,"78":0.09763877324797414,"79":-0.16079638132458943,"80":-0.20951465326627206,"81":-0.12227307512340545,"82":0.02241118515338255,"83":0.03406898222950782,"84":-0.17178014118377816,"85":-0.01212302897460712,"86":0.14424548162192194,"87":0.016917301155183386,"88":-0.08794041808003766,"89":0.007776156687484956,"90":-0.026802855021933858,"91":-0.20923967787876813,"92":0.03277896738590704,"93":-0.25941215704672493,"94":0.02225365157087014,"95":-0.2534373994860362,"96":-0.03284974118296054,"97":0.09390095887685845,"98":0.13863415637881554,"99":0.0625794055111445}},"6":{"bias":0.19442651151395887,"weights":{"0":-0.12006438034178152,"1":0.036201786251737596,"2":0.1391672166757953,"3":0.16422994488294299,"4":0.015083912145541292,"5":-0.15591568155448338,"6":0.05089536343845911,"7":-0.09639580980392692,"8":0.16847331021287576,"9":0.09251695325951782,"10":0.10113649877499327,"11":0.1517005016620598,"12":0.056087366849382,"13":0.10166022964781754,"14":0.1961019693563306,"15":0.10446630373175794,"16":0.16470321441674937,"17":-0.05712974302088478,"18":-0.1842245589122231,"19":0.047472975350182994,"20":0.14015705488386804,"21":-0.04361034985605457,"22":-0.14787149917023032,"23":0.15870391910799875,"24":-0.14255148308185508,"25":0.1867122250556423,"26":-0.052642688149102265,"27":-0.19038944814890305,"28":-0.18606263810414644,"29":0.17089911636062663,"30":-0.0040223667936064335,"31":0.029189083791893725,"32":-0.10676269852581856,"33":-0.0864024575423756,"34":-0.08130073110521009,"35":0.05025562824128155,"36":0.08950597856127848,"37":-0.11310543798647282,"38":-0.1987999360932011,"39":-0.07353406028312147,"40":-0.14382297953858142,"41":-0.1597291573593615,"42":0.0162529497399026,"43":0.0030165032942183864,"44":-0.13891771164789868,"45":-0.0800944944224687,"46":-0.09597169493058338,"47":0.025979879297878032,"48":0.10841305272295558,"49":-0.00007804609652384455,"50":-0.22399682031280604,"51":-0.02983630154332796,"52":-0.134555042250306,"53":-0.1405542215200675,"54":-0.22232010015560505,"55":0.09004935355028444,"56":0.05102966725268149,"57":0.09851695111570619,"58":0.07301132646563942,"59":-0.0033165712354971976,"60":0.10824070361739392,"61":0.12775445816442907,"62":-0.07360712428104291,"63":0.07951001603639608,"64":-0.1870495511121934,"65":-0.09985428652471476,"66":-0.06500862770552687,"67":-0.0494037990498564,"68":-0.09989714653660127,"69":0.18234729452729198,"70":0.12187078027478769,"71":0.12708016274196243,"72":0.08894465130019727,"73":0.12844842908159362,"74":-0.12085354687331729,"75":-0.13570549945552723,"76":-0.14438955987406496,"77":0.06366213069244323,"78":-0.137097198338405,"79":-0.17901835027148735,"80":-0.10028546703848114,"81":0.13155972639739888,"82":0.1361767171840527,"83":-0.10085931773270243,"84":0.07299932468327064,"85":-0.15282470863883224,"86":-0.05134431193092786,"87":0.0641159938537823,"88":-0.17421089832057485,"89":-0.0833898537255529,"90":0.0595787912866736,"91":0.17000270561493216,"92":0.03970469884233018,"93":-0.2182514585203864,"94":-0.2273052891369227,"95":0.01828790130175245,"96":-0.23400264868015067,"97":-0.20148760988290976,"98":0.0644642236267856,"99":-0.13880377919327094}},"7":{"bias":0.18736310760351052,"weights":{"0":-0.07111589519434544,"1":0.03962454931426049,"2":0.11960643061048862,"3":0.04199889652046597,"4":-0.014627132448631544,"5":0.09078359050291834,"6":0.06368570245258906,"7":0.11781825707841048,"8":0.004467687026270644,"9":0.16283860183868115,"10":0.2282505325626002,"11":0.0021540435551474367,"12":0.05736171349879615,"13":0.15084515787277764,"14":0.19104864329662954,"15":0.05459459708620914,"16":0.19384611659444034,"17":0.22845205008601138,"18":0.22321417705379526,"19":0.16091704988470057,"20":-0.02403422789944775,"21":0.0740670999386014,"22":0.21252522837224364,"23":0.17748033266678506,"24":-0.012665791872613302,"25":0.282162293109904,"26":-0.0365546501135103,"27":-0.08504057965908854,"28":0.04057730668278298,"29":-0.042741666822156354,"30":-0.1181732564323812,"31":0.16403710913532246,"32":0.028908544575989615,"33":-0.0328308874245236,"34":0.10583323771131523,"35":0.12266207677627632,"36":0.16952984733503826,"37":-0.01126636143804051,"38":-0.053094265516884835,"39":0.01948450521087769,"40":-0.07793520277708343,"41":-0.03458657908818743,"42":-0.11239555379485597,"43":-0.028116930906376437,"44":-0.11427030092012519,"45":0.06557947183313058,"46":0.05198692685734302,"47":-0.12022790441832197,"48":-0.14657846912794978,"49":-0.04495517809386165,"50":0.2167387614697281,"51":0.05911235483363279,"52":-0.07876671271390055,"53":-0.19346285220235585,"54":0.13330536858011272,"55":-0.05698813861235398,"56":0.12285823221129702,"57":-0.0013969096104385918,"58":-0.09756530062145839,"59":-0.016305588742500834,"60":0.07405512292217911,"61":0.16017853094809126,"62":0.17776627540768233,"63":0.20878773912096382,"64":0.2397513959505288,"65":-0.044191761816114825,"66":-0.0016052099425566027,"67":0.15334148794662905,"68":-0.00500817820708274,"69":0.14556951990654285,"70":0.2624077697924235,"71":0.2373583504223777,"72":-0.06604957087035054,"73":0.2343546331425931,"74":0.12613128547414457,"75":0.14293151698475348,"76":0.2600604765719518,"77":0.14247867733799166,"78":0.1436695041152765,"79":0.05571244868290525,"80":-0.03056033786203342,"81":0.00376553069771885,"82":-0.05543758306442976,"83":-0.0798563332320147,"84":-0.12205457075575359,"85":-0.07634729511309836,"86":0.22427543605597858,"87":0.24272970440233718,"88":-0.022302219752394204,"89":0.2087224251925356,"90":-0.01999129128237503,"91":0.09966177938440306,"92":-0.03283074130857293,"93":0.2604119495963412,"94":0.10124480027304403,"95":-0.05164918797618873,"96":0.06377174812276067,"97":-0.0528568524252584,"98":-0.02066825551593577,"99":0.07260678227774965}},"8":{"bias":0.004908805437473861,"weights":{"0":0.026325067016215502,"1":-0.039226968992222624,"2":-0.1208900237313278,"3":-0.0717321186948253,"4":-0.08464397262089625,"5":0.044091321130580736,"6":-0.16207376768161158,"7":-0.054670979781630824,"8":0.14048982411319638,"9":0.19290058140851432,"10":-0.08603592268802028,"11":0.06607310112327124,"12":0.13423381227316378,"13":0.1318465697928318,"14":-0.08989408181789899,"15":-0.00975072396709292,"16":0.15261175897678095,"17":-0.04597888199231922,"18":-0.16334693453119736,"19":0.07111044601543277,"20":0.14278677309190685,"21":-0.06962075428419691,"22":-0.11033948376339335,"23":0.019754406835589763,"24":0.09224559142540766,"25":-0.01584110824079596,"26":-0.07036640564114684,"27":0.19267601758771757,"28":-0.1598797616076827,"29":-0.19719666858686632,"30":-0.05731342701737186,"31":-0.0029073611166269457,"32":0.0796104418252633,"33":-0.1440660443041033,"34":-0.09317865999795358,"35":-0.13566957388982778,"36":0.06750229562267386,"37":-0.14415799912078853,"38":0.09107834273302735,"39":0.12480222217056662,"40":0.0026310931435979744,"41":0.08097168812491869,"42":0.12375547275775883,"43":-0.011137409568006929,"44":0.030646485909001507,"45":0.08485255707370223,"46":-0.07023696906149993,"47":0.13499171212911107,"48":-0.04859504323869386,"49":0.004847622466400956,"50":-0.08695748902448786,"51":0.09386275116501834,"52":0.1328215996565254,"53":-0.15346974576485242,"54":0.12003864209097748,"55":-0.13743366893936856,"56":-0.07718898455770785,"57":0.18510804751207507,"58":0.11853367333316274,"59":0.009191798108391791,"60":-0.054386528354235256,"61":0.07247881983106899,"62":-0.02490916769408645,"63":-0.05010015160493609,"64":-0.14622225928696242,"65":0.02670599710102378,"66":0.12886820039121746,"67":0.12392506015398119,"68":0.02691726930774707,"69":-0.19900368592249737,"70":-0.16221186751123848,"71":0.14990850923366328,"72":0.103973519918002,"73":0.1504496656886078,"74":0.011023612445624659,"75":-0.17698390978144207,"76":-0.13054074392113507,"77":0.16646517958092388,"78":0.08762861502170796,"79":-0.04890537044001552,"80":-0.1338791715149009,"81":-0.08812927381448848,"82":0.11071327926316475,"83":0.1521202479567588,"84":-0.07893223459342899,"85":-0.04984460442539559,"86":-0.1001004819386721,"87":-0.1675474156171242,"88":0.002573031356631404,"89":0.06593373917735915,"90":0.059211771462332786,"91":0.04633979706207482,"92":0.1766861855041316,"93":0.08455015723923497,"94":-0.1271462110873389,"95":-0.1405405025423298,"96":0.052668163629885724,"97":0.11275075072621404,"98":0.05570017191583654,"99":-0.15373543909970827}},"9":{"bias":-0.07807306181103642,"weights":{"0":-0.018444321924054298,"1":0.04276356601070605,"2":0.06413174049666862,"3":0.17399473179223043,"4":0.06746177187881099,"5":0.1941814869465123,"6":-0.16402029733644793,"7":-0.018609951733630028,"8":-0.07810998770295481,"9":-0.13907719610167643,"10":0.1266847302168062,"11":0.16837678652348023,"12":-0.010749077392328535,"13":0.09249488895850262,"14":0.14839122357805845,"15":0.06952942095788202,"16":0.07920884330783129,"17":0.11519921466799461,"18":-0.05970995733379472,"19":-0.07290071958584703,"20":-0.07642556875056196,"21":0.10677429714810936,"22":0.06979799170646504,"23":-0.020282355086388336,"24":0.023156233824995827,"25":-0.11351917086751437,"26":0.0685235694843804,"27":-0.14524160220575663,"28":0.07180539175838761,"29":0.08149843768846246,"30":0.05092443131111138,"31":-0.1420661289951521,"32":0.11801182025356091,"33":0.13983540459977398,"34":-0.09258644096553326,"35":0.1291439010186518,"36":-0.07224053191021085,"37":-0.14586655090167677,"38":0.023841931950300932,"39":-0.11298535894674405,"40":0.08813128948833945,"41":-0.1727934846900629,"42":0.14927312684035984,"43":0.04616248205498195,"44":-0.05562325657783007,"45":0.009588123401621997,"46":-0.08142752351111826,"47":-0.0408117778081994,"48":-0.0043843627763412414,"49":0.04313633798413939,"50":0.015583245204888893,"51":-0.07610764586559182,"52":0.16367934417271546,"53":0.054947218485176585,"54":-0.13754955208403882,"55":0.07405963114605127,"56":-0.1946669414672843,"57":0.041725462543043434,"58":-0.17290647735278683,"59":0.1566804689563463,"60":0.1593380325936548,"61":0.07813797772588928,"62":0.027395180740772157,"63":0.03178771239002666,"64":-0.02532320664271719,"65":0.038204546018341355,"66":-0.08788169188860563,"67":0.034336862556457265,"68":0.133985854294158,"69":-0.049696929941980425,"70":-0.07073216644307526,"71":-0.1921644284585835,"72":-0.15038036705638333,"73":-0.0020460887411958336,"74":0.18897274080886872,"75":-0.11809639561275444,"76":-0.09968693934529303,"77":0.1714442900257389,"78":-0.1696754271939504,"79":-0.06377123063951239,"80":0.17380885164893745,"81":0.025312185015037018,"82":0.19418771357780543,"83":-0.17575819672284723,"84":0.08700834700942464,"85":0.06038460799042524,"86":-0.004336792811047232,"87":0.10781538071206921,"88":-0.12220131937466723,"89":-0.17688561813809714,"90":0.1840788590323376,"91":0.19129530716783566,"92":-0.168626521975858,"93":-0.16845744081648872,"94":-0.08540177673197351,"95":0.02016265179087767,"96":0.15827105507173964,"97":-0.017026539353044663,"98":-0.051160022747578575,"99":-0.024174305083351128}},"10":{"bias":0.05303273396567055,"weights":{"0":-0.022180068306127516,"1":-0.02814535647528779,"2":-0.16407345933789969,"3":0.19926545294102402,"4":0.0428408258599546,"5":-0.08106027468939495,"6":-0.16763515919397237,"7":-0.02756250547148086,"8":-0.18626920068586827,"9":-0.14984219344241803,"10":-0.092511997930208,"11":0.037679776084508995,"12":0.07877125265126511,"13":-0.12864659745178833,"14":-0.08133054086888747,"15":0.1705462111165253,"16":0.07330027269249245,"17":0.07123419195446953,"18":-0.08076354088211969,"19":0.07733604526172103,"20":-0.0826346068638058,"21":0.1000566269272592,"22":-0.18655893420750858,"23":-0.03498278083271244,"24":-0.00662679327602116,"25":0.09035186767582977,"26":0.11901708450218129,"27":-0.18334804587063772,"28":0.03000839538921978,"29":0.05599647872149943,"30":-0.014792856387284448,"31":-0.1714048572815955,"32":-0.17186139747448262,"33":0.1360993826761842,"34":0.19355715345645885,"35":-0.0045267195440828745,"36":0.09235226297810512,"37":-0.07083442332223058,"38":-0.16974289379945395,"39":0.09277608441188934,"40":-0.19830131335095402,"41":-0.08044320475310088,"42":-0.17038567224401616,"43":0.12856289837509394,"44":-0.1401912972316248,"45":0.06289279069751502,"46":-0.11751608541053353,"47":0.06045557912439109,"48":0.06733806561877595,"49":-0.18924626950173373,"50":-0.1219218218677686,"51":-0.18993463329968435,"52":0.0782362908147306,"53":0.19812867445874857,"54":0.14766579549987086,"55":0.11061440967027017,"56":-0.11564470473446423,"57":0.03451970899481235,"58":-0.07209891052684933,"59":-0.12825183793897565,"60":-0.07397583005716929,"61":0.13586844652895994,"62":0.0481339148269046,"63":0.020440961420596666,"64":-0.15295657645678054,"65":-0.059174453839586964,"66":-0.10037310141837127,"67":-0.1755687234922273,"68":0.19689093847060674,"69":0.1431176110172174,"70":0.13712327387416828,"71":0.17222564527784923,"72":0.17212421093366562,"73":-0.14197914898363417,"74":-0.09160380987221796,"75":-0.03070082208091946,"76":0.02510245638196874,"77":0.08457214580914921,"78":0.1372620414033926,"79":-0.14433924825783784,"80":0.07616590066109073,"81":0.19749161861925488,"82":-0.056813058906753915,"83":0.042920249142686835,"84":0.059893159011791104,"85":0.1677263753498366,"86":0.1860328328818477,"87":-0.05106569006939597,"88":-0.015786511821284474,"89":-0.0920955632803328,"90":0.11481973044799301,"91":0.19593788646261068,"92":-0.11393930157423918,"93":0.11446149898792433,"94":-0.12981333508867376,"95":0.19859756874020068,"96":-0.15045573636675336,"97":-0.19873702106897861,"98":0.05432604365256437,"99":0.19021952357242672}},"11":{"bias":0.040355918531196036,"weights":{"0":0.060277199976532,"1":-0.10836373200930711,"2":0.19375331238695812,"3":0.004448670515734712,"4":0.11714517646321491,"5":0.08739142006648896,"6":0.15241485223957732,"7":0.015257614547707157,"8":-0.14193910784235764,"9":-0.12694120590041594,"10":0.07822167319097949,"11":0.058514692160894,"12":-0.08684581783747838,"13":0.009687216797307711,"14":-0.06904862732774185,"15":0.20198249065931534,"16":-0.09858025745636391,"17":0.09567962210163533,"18":0.007488046445338255,"19":-0.18497967887965175,"20":0.030119710553823217,"21":-0.027443524444964895,"22":0.14106449060925677,"23":0.15542240361938012,"24":0.19228960512989593,"25":0.049512395209576385,"26":-0.028104385688515185,"27":-0.1444781425409019,"28":0.1023570437835097,"29":-0.0007190979085862637,"30":-0.1661341260799272,"31":0.1576644469983876,"32":-0.16455120937791506,"33":-0.08981425603851677,"34":-0.17626916376621735,"35":0.0637990362942219,"36":-0.00680470318702793,"37":-0.03637376660481095,"38":0.1797449722386843,"39":-0.038061352074146265,"40":0.02169548876647578,"41":-0.06210980038816165,"42":0.09261305717648884,"43":-0.09777120999718142,"44":0.10345941446855184,"45":0.18278482629533746,"46":-0.07991110435701071,"47":0.0217332641685363,"48":0.10416966196664218,"49":0.06128194360974992,"50":0.07828804170551078,"51":-0.14700633962383738,"52":-0.09241436032192592,"53":0.18829553579235206,"54":0.09216344165708928,"55":-0.11607898278564514,"56":0.1957181846266618,"57":0.04848256026923357,"58":-0.06015516011882517,"59":-0.08587631691376102,"60":0.18975092410203126,"61":-0.07834674924375919,"62":-0.11865061218757125,"63":-0.16298390790036488,"64":-0.03304781583044621,"65":-0.05400750241792668,"66":0.07468503615912109,"67":0.0504518857287489,"68":0.041452252260409876,"69":0.1438743534479104,"70":0.23189389598649052,"71":0.11385427391752062,"72":0.21811506557371524,"73":0.04323838175722247,"74":0.22690294380392934,"75":0.03509500440510233,"76":0.023755632574670588,"77":0.22517580425538017,"78":0.1602518126843503,"79":-0.06259160004422552,"80":-0.03683264437038395,"81":-0.03925776873052902,"82":0.0047802950730553,"83":0.07065212433212342,"84":0.08452873951848655,"85":0.10250035956104081,"86":0.11481961901392848,"87":0.14431049635509702,"88":0.03614715593960193,"89":0.12926691510024144,"90":0.016703233294321232,"91":0.12717527942972853,"92":0.23869625802556424,"93":0.009807999620760243,"94":0.056409277613952605,"95":-0.0879831465868406,"96":-0.13760178606549822,"97":-0.02664490351212544,"98":-0.05972072342384308,"99":0.09042036934065296}},"12":{"bias":-0.15353949777781964,"weights":{"0":0.0807191486470401,"1":0.19330661818385125,"2":0.12367615532130005,"3":0.05875611724331975,"4":0.10632560942322017,"5":-0.08995179608464242,"6":0.1236411828547716,"7":0.19424711233004927,"8":-0.1215273384936154,"9":-0.03359001427888869,"10":0.09117381200194358,"11":0.07951371381059291,"12":-0.19076770413666966,"13":-0.11245602779090405,"14":-0.18498059064149858,"15":0.1313189723528922,"16":0.006515598390251398,"17":0.1040506362915039,"18":0.1180347051471472,"19":0.180570378433913,"20":0.022854275163263077,"21":0.07755328416824342,"22":-0.17808588314801455,"23":-0.12190992264077068,"24":-0.19645531009882689,"25":0.1743303910829127,"26":0.1846760633401573,"27":-0.15782559411600233,"28":-0.1860641366802156,"29":0.04336368665099144,"30":-0.16906373100355268,"31":-0.09077071081846953,"32":0.10670788669958714,"33":0.1783569363877177,"34":0.018121994100511074,"35":0.013648462947458029,"36":-0.09854201087728143,"37":0.031489756237715494,"38":-0.13021646961569788,"39":0.0702678758651018,"40":-0.019741562940180313,"41":-0.013057397957891237,"42":-0.03448126297444104,"43":0.015054639056324953,"44":0.19919291567057373,"45":-0.03593967100605369,"46":-0.06979519007727505,"47":0.15932807624340056,"48":-0.18018922917544844,"49":-0.1767861285246909,"50":0.045661130733788025,"51":0.07533112596720459,"52":0.05940119512379172,"53":0.11979780858382583,"54":0.16745221987366676,"55":-0.137275393307209,"56":0.10119900871068238,"57":-0.006353932712227117,"58":-0.13650010628625753,"59":-0.01572429109364748,"60":0.1339619351550937,"61":-0.08188562113791704,"62":0.12244794890284538,"63":-0.1565786830149591,"64":0.12072676187381148,"65":0.14821059722453356,"66":-0.06850114492699505,"67":0.18952106358483434,"68":-0.0989634020254016,"69":-0.15441130856052043,"70":0.07985756043344738,"71":-0.0693612650036812,"72":-0.06673570228740575,"73":0.01667862879112364,"74":0.17340852692723274,"75":0.0916331412270665,"76":0.19524111906066538,"77":-0.1184396174736321,"78":0.14004866471514105,"79":-0.08768569640815259,"80":0.05955181187018754,"81":-0.17012725174427035,"82":-0.06933516068384052,"83":0.19816054850816728,"84":0.14297711113467815,"85":-0.09311912907287478,"86":0.05484173512086271,"87":0.18331982605159286,"88":0.137758079636842,"89":0.1728558839298785,"90":-0.1728535524569452,"91":-0.05874494472518563,"92":0.18479721443727615,"93":-0.02011552918702364,"94":-0.1055923318490386,"95":-0.17336477041244508,"96":-0.0818200315348804,"97":-0.05759757859632372,"98":0.11716150054708124,"99":-0.1574488416314125}},"13":{"bias":-0.13744440330192448,"weights":{"0":-0.11795518081635237,"1":-0.003218105901032692,"2":0.1516495790332556,"3":-0.0003917385824024622,"4":-0.1071306579746306,"5":0.1824592431075871,"6":-0.08882730910554529,"7":-0.16157791391015053,"8":-0.10876775244250894,"9":-0.1245339184999466,"10":-0.07907926924526693,"11":-0.022967516910284758,"12":-0.14229515604674817,"13":0.11023171180859209,"14":-0.1719287043437362,"15":-0.1006717311218381,"16":0.011695584841072554,"17":-0.10956897381693126,"18":-0.08174645341932774,"19":0.1918393514119089,"20":-0.17719940431416037,"21":-0.09520131340250373,"22":0.184941425640136,"23":0.0791378262452781,"24":-0.1679247376509011,"25":0.05887592034414413,"26":0.17196536501869558,"27":0.15452896850183606,"28":0.11345597375184296,"29":-0.0015704503282904514,"30":-0.015090341307222838,"31":-0.13603163585066796,"32":-0.08130773464217783,"33":0.18671748209744693,"34":-0.0012916988693177645,"35":-0.05466147214174272,"36":-0.03775500440970064,"37":-0.06486631007865071,"38":0.1535109749995172,"39":-0.010717742983251816,"40":0.04117947844788433,"41":-0.019866119604557753,"42":-0.1959887036122382,"43":0.04632830629125237,"44":-0.05213964097201826,"45":-0.05606560148298742,"46":0.035689406935125595,"47":-0.1023866611532867,"48":-0.1163303028792143,"49":0.19052239591255787,"50":0.1227893238887191,"51":-0.058044729009270685,"52":0.03254010491073131,"53":-0.13582582687959077,"54":0.04032840989530087,"55":0.014760744757950306,"56":-0.0448963581584394,"57":-0.09754632748663426,"58":-0.17764036282896997,"59":-0.17813136791810394,"60":0.10507044205442073,"61":0.041044194996356975,"62":-0.12488150950521232,"63":0.09879495734348892,"64":-0.13400839297100903,"65":0.12248110771179199,"66":0.04229687387123704,"67":0.027163427602499735,"68":0.11825440702959894,"69":0.025152036920189857,"70":-0.0883701054379344,"71":0.13137298142537474,"72":-0.1349014167673886,"73":-0.17963123302906753,"74":-0.14717347407713532,"75":0.04292292902246117,"76":-0.04895024802535772,"77":0.1614220404997468,"78":0.14565088087692857,"79":-0.025558185856789345,"80":0.027033001277595753,"81":0.16686095297336578,"82":-0.1257533673197031,"83":0.008220480848103756,"84":-0.11629072781652212,"85":0.0068858033977448885,"86":0.02867317823693155,"87":-0.11110410606488585,"88":-0.09881541812792421,"89":-0.07305186111479997,"90":0.18503048131242394,"91":0.04672372406348585,"92":-0.10129692601040007,"93":0.017831141874194156,"94":-0.13409802531823517,"95":-0.0942180747166276,"96":0.15321237249299885,"97":-0.05113489888608455,"98":0.12517130905762314,"99":-0.005845139361917967}},"14":{"bias":0.1446629707808198,"weights":{"0":-0.10804317520806228,"1":-0.16983608334032285,"2":-0.10600885790965116,"3":-0.18468319771816116,"4":-0.006942075981945506,"5":0.05868866987517211,"6":0.08418041602629989,"7":-0.009667907420067413,"8":-0.16088805890311078,"9":-0.009313264142761384,"10":0.03796704048553868,"11":-0.14960406230647524,"12":0.05975917901949922,"13":-0.056862560002880445,"14":-0.0000065460743159514365,"15":-0.1698421258197034,"16":-0.17368529151721712,"17":0.0006263278297661784,"18":0.0406891353653565,"19":-0.03508324063593716,"20":-0.17456326118383397,"21":0.10663634710458232,"22":-0.039665966314978894,"23":0.07689628222576339,"24":-0.1135926867699194,"25":-0.03500672518742399,"26":0.14745593813126698,"27":-0.18011022815847016,"28":-0.04726483418419544,"29":-0.11644751944630183,"30":-0.0104472100472467,"31":-0.11620173095843407,"32":-0.152716609046071,"33":-0.13672861009910706,"34":-0.05674429695250482,"35":0.08051364195895847,"36":0.13058011567520278,"37":0.15500959869898798,"38":-0.10327317153663303,"39":-0.026028859356961108,"40":-0.1663419789541568,"41":-0.052619978232117635,"42":0.0027612419800245786,"43":0.026205620389535292,"44":0.1400752307328737,"45":-0.07996649707249665,"46":-0.028480400106562925,"47":0.046514789372687576,"48":0.20524655063499045,"49":0.046468011416470265,"50":-0.026305522847994523,"51":-0.1635028805577734,"52":-0.013310495740838733,"53":-0.021914470407650072,"54":0.09195889918316405,"55":-0.11206827442488278,"56":0.028126489557758164,"57":0.16728484449225509,"58":0.21244289933765081,"59":-0.11839172670923626,"60":0.036474620748039616,"61":-0.014758833880395244,"62":-0.11714093509620832,"63":-0.08144727036312835,"64":-0.12293626060538711,"65":-0.024323273671855408,"66":0.06406931846140072,"67":0.015933344696247843,"68":0.07882632997661353,"69":0.032000485065352566,"70":0.20660648829510617,"71":-0.084582813666946,"72":0.03246252016166579,"73":0.02696874342403877,"74":0.005823281218859641,"75":-0.053918172266813384,"76":0.01670951965676086,"77":0.09521884530262129,"78":-0.027046390575521908,"79":0.057359761908420875,"80":-0.09944578765348401,"81":0.1861146968056981,"82":-0.0437405242987889,"83":0.04577071983227906,"84":-0.13249929900260243,"85":0.03512927565487339,"86":-0.07047937411135197,"87":0.16104517459097317,"88":0.02105962648144912,"89":0.1474201136078874,"90":0.19999653318505772,"91":-0.019278293739515555,"92":0.20541990001296925,"93":-0.1232580716482324,"94":0.17710140568536303,"95":-0.13540568450780247,"96":-0.10295572131495916,"97":-0.048161968186619816,"98":-0.13319463428159373,"99":0.20337032287662438}},"15":{"bias":0.12145047599904882,"weights":{"0":0.07774078978299458,"1":-0.049388982293627204,"2":0.14100229819759952,"3":-0.12076040874741607,"4":0.06969385476122555,"5":0.09427436659537622,"6":-0.03468099809256293,"7":0.02025774758733826,"8":-0.07099852164556214,"9":-0.029009621455743755,"10":0.18995211044793392,"11":0.06336326882666922,"12":-0.004987041315017523,"13":-0.1413684329534504,"14":0.04467599697325886,"15":0.10105868945320395,"16":-0.14868561059780602,"17":0.033973160800074474,"18":0.10410678022193774,"19":-0.005125680617522686,"20":-0.17400753173851868,"21":-0.04321999089375123,"22":-0.19590119051149876,"23":0.14064252827731583,"24":0.030248996884124486,"25":-0.09920132891794708,"26":-0.17636087833186476,"27":-0.12467327270524363,"28":-0.08616711094517993,"29":0.091199533337261,"30":-0.19572782772211994,"31":-0.010588142568637776,"32":0.09074311364105901,"33":0.055803529239028656,"34":0.005320085012904312,"35":-0.12101316162656878,"36":-0.14084015647615675,"37":-0.14518232573695458,"38":-0.07128494325556008,"39":0.050254919363226916,"40":-0.16444284468872702,"41":0.02265137026151047,"42":-0.04337611133210914,"43":0.09375338785472875,"44":0.05378281278561879,"45":0.0014086320183987308,"46":0.09951680523449602,"47":-0.15656340510844408,"48":-0.07226691733676091,"49":-0.0764690002719486,"50":0.014721881262709166,"51":-0.030294544251864747,"52":0.10417342953606205,"53":-0.14528364661340074,"54":0.07315798598428831,"55":-0.07047210270526401,"56":0.15420541301870963,"57":0.10691905980945886,"58":-0.044957201987615464,"59":0.012864548340630534,"60":-0.10342677610897624,"61":0.1451645641589924,"62":0.17824076486093468,"63":0.11461056011831712,"64":-0.19950490367447807,"65":0.07551324542704516,"66":0.08115233362131516,"67":0.12265993913061125,"68":0.0808717495763006,"69":-0.08301273739656884,"70":-0.1253239151361215,"71":-0.11498193970851679,"72":0.1436839199604253,"73":-0.04299399984158285,"74":-0.14800941731716113,"75":-0.08218253360613365,"76":0.08558714107015332,"77":-0.09508796815448058,"78":0.07056216305455064,"79":0.19923351260475564,"80":-0.09550664791506597,"81":0.034598734965344255,"82":0.099764414776768,"83":0.05330256865125936,"84":-0.1471634273418353,"85":-0.18060920696679494,"86":0.060448631119227485,"87":0.08728919164837934,"88":0.14989131962744115,"89":-0.039896481159327445,"90":-0.06622113866747241,"91":0.026065724190948734,"92":-0.015195736491951498,"93":-0.024331690255056562,"94":0.14867266499373596,"95":0.07884923306242202,"96":-0.15452436169749464,"97":-0.11079981167578067,"98":0.14292440279156485,"99":0.07273229481161467}},"16":{"bias":-0.012001376744844973,"weights":{"0":0.14227896870475654,"1":0.23316055983623182,"2":-0.14588165240446543,"3":0.1100665074898303,"4":0.11772776157064958,"5":-0.034100058219283684,"6":0.14229161276437113,"7":-0.045161116863911006,"8":-0.005066788748526775,"9":-0.00264690988513264,"10":0.02622362112417481,"11":0.22249618057422466,"12":-0.085353281159129,"13":0.12595268001941506,"14":0.029344207748818088,"15":0.21738448176607703,"16":-0.07521216285348688,"17":0.14691744318634503,"18":-0.1670410088431289,"19":0.13945082735988257,"20":-0.07934147242600428,"21":0.00862015137022009,"22":0.04939217612364207,"23":0.11488646699215563,"24":-0.15521119885622858,"25":0.011241642177762742,"26":0.005964280721677482,"27":-0.11024774438608362,"28":0.06987797360842711,"29":0.20675847514783002,"30":0.02877632786123657,"31":0.11765929805076654,"32":0.024080549267704487,"33":0.2115374691265695,"34":0.13675305868205803,"35":0.07886010165882383,"36":0.05650779700303883,"37":0.17680276927521338,"38":0.03171131325738844,"39":-0.1297639777752675,"40":-0.017603198528963537,"41":-0.15591535690391128,"42":0.12038027172300488,"43":0.0320608383247939,"44":0.1361511612659728,"45":-0.05108771309695833,"46":-0.19045700174867453,"47":0.08538674069896543,"48":0.0840562375584257,"49":0.008369289107398216,"50":-0.11056408214919672,"51":-0.05459173115455652,"52":0.03698212707980438,"53":-0.07466384968154137,"54":-0.13074220334375064,"55":0.13281337231447282,"56":-0.010581988503052319,"57":-0.0019502068152531184,"58":-0.0057186296969010736,"59":0.11718251034023884,"60":0.16156947357483512,"61":-0.12398126388582964,"62":-0.015098990334873672,"63":0.05781905587405913,"64":0.09288175216018833,"65":0.12322688869518403,"66":0.22551161120398586,"67":-0.010620520998047736,"68":0.05678747322812563,"69":0.0627235623357559,"70":-0.15176258795046463,"71":-0.03956868661179633,"72":0.24301304137251128,"73":0.22081554750953888,"74":-0.009715170241595489,"75":-0.05058074723395127,"76":0.12173606552137571,"77":0.08127702955251333,"78":-0.09434211460882488,"79":0.17380389253992354,"80":-0.03379443024985169,"81":0.06568178484606527,"82":-0.02935326119384171,"83":0.1028872653950303,"84":0.17113254285094412,"85":-0.053845949101902636,"86":0.2204624379513994,"87":-0.13994690652388178,"88":-0.1461365548349756,"89":-0.0037135223616942114,"90":-0.1263963261749699,"91":-0.13987725151154243,"92":-0.17103147802810248,"93":0.05664571600583351,"94":-0.15594821884483528,"95":0.13368547195225203,"96":0.00927763070390568,"97":0.0794392177456428,"98":0.11650009492584534,"99":-0.15083822035738195}},"17":{"bias":0.08336962861940267,"weights":{"0":0.18103401456028223,"1":-0.017296501714736234,"2":0.02482888149097562,"3":0.018533973302692186,"4":-0.12880255281925201,"5":-0.08638668023049832,"6":0.1586278073489666,"7":-0.033763222862035036,"8":0.11669315826147797,"9":-0.11552783185616136,"10":-0.021662435680627812,"11":0.1985163236036897,"12":0.1413495998829603,"13":-0.06658831480890512,"14":0.10119501911103729,"15":0.05088347746059296,"16":0.08752217190340161,"17":-0.10796409500762821,"18":-0.021637157630175347,"19":-0.0696117913350463,"20":0.13226228272542356,"21":-0.013668809458613401,"22":0.11071433052420615,"23":0.19114479469135404,"24":0.05540296919643878,"25":-0.15553207518532874,"26":-0.147604875639081,"27":-0.18529892703518272,"28":0.09892320744693278,"29":0.10761744501069187,"30":-0.11811806224286557,"31":0.008457186352461565,"32":0.0403186005540192,"33":0.1482864707708359,"34":0.1589836056344211,"35":0.04459220599383115,"36":0.16764052789658307,"37":-0.1796473982743919,"38":0.17953160367906096,"39":0.06830825218930842,"40":0.15409013023599982,"41":0.16597123397514224,"42":0.14755543489009143,"43":0.03834631675854325,"44":-0.06967742871493102,"45":-0.10090328408405186,"46":0.1742049929685891,"47":-0.047134143672883516,"48":-0.10077309301123023,"49":0.01107124295085668,"50":0.11437995936721562,"51":-0.028475746978074312,"52":0.08413023212924597,"53":-0.07508195266127587,"54":-0.07542561599984765,"55":-0.08664432056248189,"56":0.03832138152793049,"57":-0.18109902339056136,"58":0.08309027524664997,"59":-0.054621271975338476,"60":0.1895431337878108,"61":-0.07684166226536036,"62":0.17769594201818112,"63":-0.161898363661021,"64":-0.06669665258377791,"65":0.14852637900039556,"66":0.10666784625500442,"67":-0.05198134947568178,"68":0.03266061525791883,"69":-0.18236973686143756,"70":-0.028167099878191937,"71":-0.11545072449371219,"72":-0.04488545758649706,"73":0.05168902361765504,"74":0.19176378082484008,"75":0.038015312608331436,"76":0.18064446607604623,"77":-0.16780045032501223,"78":-0.08224733155220748,"79":0.13689211886376146,"80":0.09432654492557047,"81":0.07629855321720241,"82":0.0667470905929804,"83":0.08527491884306071,"84":-0.05792070282623171,"85":-0.026146487891674036,"86":-0.07600010400637985,"87":-0.10100807948037982,"88":0.05338123952969909,"89":-0.07442855201661588,"90":-0.09456564346328378,"91":0.10113050527870654,"92":-0.10492678014561535,"93":0.12869991790503266,"94":-0.15193957602605224,"95":-0.0920255127362907,"96":-0.03571893982589244,"97":-0.13592774672433733,"98":0.18104720637202265,"99":-0.12076398311182857}},"18":{"bias":-0.02139020087197424,"weights":{"0":-0.1797218509949744,"1":-0.13252387167885898,"2":0.0859039922244847,"3":-0.058658956643193955,"4":-0.09798245076090098,"5":0.021106607839465136,"6":0.10243297228589654,"7":-0.028408425766974693,"8":0.191268652677536,"9":-0.013402742613106977,"10":0.17869649073109034,"11":0.06300568394362926,"12":-0.02105719530954958,"13":-0.07758726645261049,"14":0.10272387508302927,"15":-0.1909723964519799,"16":0.07413119906559584,"17":-0.12696084659546614,"18":0.16009751372039321,"19":-0.05977500863373281,"20":-0.03142832070589066,"21":-0.0005007007159292809,"22":0.17851547338068485,"23":0.08800534121692183,"24":0.059637475945055474,"25":-0.048200325481593614,"26":-0.11579175423830748,"27":-0.09129784032702447,"28":-0.10269260099157691,"29":-0.10998317366465926,"30":-0.16307017533108592,"31":0.03940926846116782,"32":-0.0713264660909772,"33":-0.12991516143083573,"34":0.11135770035907627,"35":0.12025659857317805,"36":0.17454192526638507,"37":-0.19559337049722672,"38":-0.19427695302292705,"39":-0.05804952867329122,"40":0.09319985304027795,"41":0.13320966213941576,"42":-0.02058900725096463,"43":0.10189750725403429,"44":0.11747596114873887,"45":-0.17404526686295868,"46":0.02850057417526841,"47":-0.19592358991503717,"48":-0.1460870407521725,"49":0.08581624962389467,"50":0.15310176732018593,"51":0.1963668450713158,"52":-0.11925678523257376,"53":0.060814944095909595,"54":0.13558066068217162,"55":-0.011920797638595104,"56":0.13025397406890987,"57":0.16497077541425825,"58":-0.010526955220848316,"59":0.050850868690758944,"60":-0.18492182902991772,"61":0.12002204023301605,"62":0.04899750612676143,"63":0.030165028385818,"64":-0.08617056161165237,"65":0.022822637483477598,"66":-0.07083674920722843,"67":-0.13335995664820077,"68":0.06460423385724423,"69":-0.15274557331576943,"70":-0.19908924540504813,"71":0.15225727064535022,"72":0.14889294989407065,"73":-0.11745372032746673,"74":0.13916278192773462,"75":-0.13801453672349454,"76":0.03094369200989605,"77":-0.17888644514605404,"78":-0.0943294937722385,"79":0.021676491759717476,"80":-0.14736723294481635,"81":-0.1862479766830802,"82":0.06767963506281377,"83":-0.06813279977068307,"84":-0.1642090597189963,"85":-0.03281865073367954,"86":-0.035306492540985335,"87":-0.0796559345908463,"88":0.15083117857575418,"89":0.05640686759725211,"90":-0.13651690119877458,"91":-0.19337989920750262,"92":-0.04672829303890466,"93":0.06921969437971709,"94":-0.0631959811784327,"95":-0.04792405609041453,"96":0.1524216836318374,"97":0.030218768678605568,"98":-0.030494202114641655,"99":0.00015217587351798456}},"19":{"bias":-0.15982083478126605,"weights":{"0":-0.18127344664759684,"1":0.02845822210941599,"2":0.14432734892612833,"3":0.14815366267081073,"4":0.14638444568969852,"5":0.21387909454343193,"6":-0.08996926867827357,"7":0.03618378156543577,"8":-0.14213592346149265,"9":0.01612002398515826,"10":0.10094276591856685,"11":-0.053212796691866064,"12":-0.10318352140557543,"13":-0.17485472348925418,"14":-0.01981692441090667,"15":0.00048325875454234226,"16":0.1365132792075897,"17":0.17430674372840596,"18":-0.04541874236269442,"19":-0.02901877175842369,"20":0.01825234347166707,"21":0.1970310246846029,"22":0.020715748706007113,"23":0.12312472138274902,"24":-0.16448556983927853,"25":-0.0070940931323925744,"26":-0.09913083145543305,"27":0.05972198460131402,"28":-0.14401168501282027,"29":-0.09245470836489073,"30":0.09545609660783225,"31":-0.1100252794634058,"32":-0.11902247450856844,"33":-0.14799723820794802,"34":-0.07470348500285934,"35":0.13886080374506823,"36":-0.031078399696580942,"37":-0.14741120272535718,"38":-0.011611521199735167,"39":0.1753105586701736,"40":-0.19854377193635572,"41":0.014242460679498827,"42":-0.02046828831914504,"43":0.021827582727435412,"44":0.032714145736060476,"45":0.0642699518966632,"46":0.057826917837459677,"47":0.04222051970542176,"48":-0.11664292631059563,"49":0.07986620833100479,"50":-0.11745895828865201,"51":-0.08973672938042089,"52":-0.05437018643764215,"53":-0.015338577622385541,"54":0.029230619673827972,"55":0.02576621083081228,"56":0.15281632558856412,"57":0.03467435194437714,"58":-0.12529486089029426,"59":0.09209450387246308,"60":0.06786648162918625,"61":-0.18322672668810092,"62":-0.06289514697396735,"63":0.16939586241945276,"64":-0.09380633911585472,"65":0.10235248246268096,"66":0.20719005538592486,"67":-0.1842082211695055,"68":-0.08328521340346268,"69":0.06620965314477494,"70":-0.04662345800028135,"71":-0.11683233482361668,"72":-0.00037914226963552046,"73":0.18764217134533767,"74":0.0582877177297213,"75":0.15847677161157647,"76":-0.003503081736935869,"77":-0.13271984609142726,"78":0.21128787393543463,"79":-0.18661436212706234,"80":0.05232674387913002,"81":-0.036223036806748876,"82":0.11626817097209899,"83":-0.05382401000170765,"84":-0.13410911280542592,"85":0.09650059341625408,"86":-0.0866806883173666,"87":0.1864277868363375,"88":0.12991998146495543,"89":-0.12581567719280703,"90":0.1928156692971778,"91":0.05889930907171109,"92":0.11676825266338761,"93":0.09789036093520226,"94":0.21699320115699422,"95":-0.14544994233671307,"96":-0.1264838774423737,"97":-0.04515449868851758,"98":0.013981267958190241,"99":0.06088963562222893}},"20":{"bias":-0.1078202286735177,"weights":{"0":-0.08652470642700792,"1":0.04053111737594009,"2":-0.040085573215037584,"3":0.12951753614470363,"4":-0.16582634560763837,"5":-0.1282062460668385,"6":0.14117299634963276,"7":-0.0805220201611519,"8":0.018603471759706725,"9":-0.019807004369795322,"10":0.057245150208473206,"11":0.06275470489636065,"12":-0.08823394495993853,"13":-0.14871535422280432,"14":-0.09279182106256485,"15":-0.059652437362819916,"16":-0.03865873804315925,"17":0.06007848186418413,"18":-0.08126884363591672,"19":-0.03849283484742044,"20":-0.02311573605984449,"21":0.1596126268617809,"22":0.05166103402152655,"23":0.18443851992487909,"24":-0.04839782612398266,"25":-0.1614726208150387,"26":-0.06207452584058046,"27":0.09285258091986182,"28":0.1748889857903123,"29":-0.16240160670131445,"30":-0.1523041975684464,"31":0.19561527762562037,"32":0.03991240812465549,"33":-0.19318219982087614,"34":-0.0007179536856710966,"35":0.17411733828485015,"36":0.10301748663187027,"37":0.060507410019636165,"38":-0.0019862348213791903,"39":-0.18116338895633818,"40":0.1844399423338473,"41":0.19339987691491844,"42":-0.09083100194111467,"43":0.08765133423730731,"44":0.13888881206512455,"45":-0.10448738476261497,"46":0.002052918728440989,"47":-0.12248747041448951,"48":-0.1645977232605219,"49":0.014125264994800102,"50":-0.16652471851557493,"51":0.008883846178650845,"52":0.08482461832463739,"53":-0.03877915907651186,"54":-0.046572333294898266,"55":-0.160028004553169,"56":0.05457754973322154,"57":0.029485578835010517,"58":-0.008623756002634764,"59":0.14970325101166965,"60":0.04807233968749641,"61":-0.05830387966707348,"62":0.0717072385363281,"63":-0.13448833478614688,"64":-0.1843857397325337,"65":-0.1170421508140862,"66":-0.1370517867617309,"67":0.1763491856865585,"68":0.0011665970087051392,"69":-0.132331108301878,"70":-0.1831827636808157,"71":-0.11723619811236859,"72":-0.07777297254651785,"73":-0.03244698671624063,"74":0.019982556439936155,"75":-0.0007299893535673563,"76":-0.10102365715429187,"77":0.19554357035085562,"78":-0.0841363150626421,"79":-0.13114326167851686,"80":-0.002928615920245653,"81":0.07831996977329253,"82":0.006842810753732914,"83":-0.06506314184516668,"84":-0.08180112093687059,"85":-0.08316333452239633,"86":0.09202117547392846,"87":-0.059582648705691105,"88":0.1233344848267734,"89":0.1887138425372541,"90":-0.1625535140745342,"91":0.002717713732272392,"92":-0.037722177524119604,"93":-0.08637568606063724,"94":-0.06692994609475136,"95":-0.09642918994650246,"96":-0.10846212431788445,"97":-0.10201387098059059,"98":-0.07920619947835804,"99":0.1623718161135912}},"21":{"bias":0.1863869805605487,"weights":{"0":-0.042829112592816077,"1":0.11283834081673061,"2":0.00726623629348455,"3":0.11149418336778964,"4":0.23651991397180785,"5":0.04734790922582231,"6":-0.09223079114783701,"7":0.0017092024113245995,"8":-0.10254946041153294,"9":-0.01956293963387526,"10":-0.09780248342404538,"11":0.03578115060433827,"12":0.17561978595338965,"13":-0.011435767621993196,"14":0.16341145526955697,"15":0.05327442317709409,"16":0.1784150576369892,"17":0.034393106973470075,"18":0.08485423413322273,"19":0.21566028503209436,"20":-0.0032919478557007736,"21":-0.0084352114100746,"22":-0.04289699068527269,"23":0.24213854671895588,"24":-0.059983195277296,"25":0.18006201164305288,"26":0.06528972643732851,"27":0.13082068977716127,"28":0.07401445530539308,"29":0.041490530943862194,"30":0.12735346658308933,"31":0.05415967115248998,"32":-0.05563461821253621,"33":-0.022933675620475078,"34":-0.04976188678052476,"35":-0.0672631479272452,"36":-0.18632127865096654,"37":0.25007754163228924,"38":-0.06891543974408632,"39":-0.08580055356525004,"40":0.026680877991020674,"41":-0.06412465141686771,"42":-0.06342250071465969,"43":-0.022670269194145717,"44":0.18651540223509072,"45":-0.07772501704669046,"46":-0.14146048031716627,"47":-0.05283657144451738,"48":0.13936142255703807,"49":-0.0499919289918137,"50":-0.10622736996097368,"51":-0.1880086225096866,"52":0.08554434830837472,"53":-0.10815440846246083,"54":0.07889250094497305,"55":0.1616093751974404,"56":-0.07544441869805031,"57":-0.1365071906708181,"58":0.1562846271382238,"59":0.1409283196553588,"60":-0.09475232726101301,"61":0.03259525839239358,"62":0.05774793817164307,"63":0.01311628840894426,"64":0.20975425829073915,"65":-0.022732508932077136,"66":0.011259184964154225,"67":-0.02773945209898601,"68":0.243253604944718,"69":0.18166175021853326,"70":0.05026238617323966,"71":0.10895781821515584,"72":0.01119401073701538,"73":0.13873786301688107,"74":0.17727705441703284,"75":-0.10683873820923218,"76":0.022056754044765304,"77":0.22782397860699524,"78":0.2597157593998552,"79":0.08798573692488575,"80":-0.001537930667823482,"81":-0.010242124923188427,"82":0.01686690634043497,"83":0.24345009787200153,"84":0.14630341489605317,"85":0.09623364261664481,"86":0.03167931541454798,"87":0.09660755444421701,"88":0.19949922773760417,"89":0.26743906264417977,"90":0.1858238157381866,"91":0.2548962759005725,"92":-0.05962513991199553,"93":0.2511660202407877,"94":0.23447128432182576,"95":0.0137248226698367,"96":0.24708278389927923,"97":0.018312804386057518,"98":-0.04191689442593599,"99":0.2218458508518471}},"22":{"bias":0.16258514803649177,"weights":{"0":0.4245483865526068,"1":1.0784822182884048,"2":0.37754584231379057,"3":1.2230480266635697,"4":0.2857910740568314,"5":1.026681207332086,"6":0.4776676565030183,"7":1.0990547584499502,"8":0.17353976057945514,"9":1.2159533086668493,"10":0.4862980919599621,"11":1.167236073950791,"12":0.4597802744813069,"13":0.9370482151076245,"14":0.05040781426675761,"15":1.2241162922819235,"16":0.24934481750155513,"17":1.0056538525015912,"18":0.177719778452334,"19":1.0289784537974183,"20":0.24173777141280967,"21":1.1452340296966672,"22":0.21613085759660547,"23":1.0737557575363865,"24":0.18743749900188578,"25":0.9265644241376594,"26":0.10550650309543191,"27":0.6194760166917626,"28":0.029586131162585776,"29":0.5778479998834187,"30":0.19306279943825208,"31":0.44141886783029516,"32":-0.10001933893463467,"33":0.4809284826960842,"34":0.19574880006782322,"35":0.39340196027311775,"36":-0.04987257578262229,"37":0.3220364939542229,"38":0.19672571038355144,"39":0.2046986964652375,"40":0.2632674479093783,"41":-0.16491059740639305,"42":0.3248720546191493,"43":0.14010748409175014,"44":0.6546401417245472,"45":0.1534504255088574,"46":0.46559903020040716,"47":-0.011435060548012351,"48":0.7675734167921827,"49":0.042030794861785827,"50":0.7314031853128599,"51":-0.05490914091857531,"52":0.6993588986283641,"53":-0.06083885448138512,"54":0.6307786185459497,"55":0.17750245032542483,"56":0.6851982769050047,"57":0.14399407004586467,"58":1.0547951463865848,"59":0.39502464354959427,"60":0.9258589467635152,"61":0.32518060737713744,"62":0.7538361855033384,"63":0.4688026143768409,"64":0.9264232306796985,"65":0.5794191225296393,"66":0.9692614221865329,"67":0.8694492902135079,"68":0.9112239868278141,"69":0.8330316531858812,"70":0.8047343329808834,"71":0.7768081308187119,"72":0.795002696212841,"73":0.9095208401729741,"74":0.5265110960759046,"75":0.7603091426760902,"76":0.5823586719669654,"77":1.151735309656368,"78":0.6062094753489119,"79":0.9383850280653648,"80":0.6299558379924901,"81":1.1884061689250043,"82":0.4136285453009525,"83":1.037393436044788,"84":0.2933574437865099,"85":1.1053620443245562,"86":0.22970989333631453,"87":1.178266876421247,"88":0.08132944063741934,"89":0.9285363533291867,"90":0.11182495265546058,"91":1.147373321183279,"92":0.42262175104730904,"93":0.8790435140776306,"94":0.02043462234093978,"95":0.8470704064171264,"96":0.08076074314440014,"97":0.9306692165626533,"98":0.127800065442534,"99":-0.0753173963115291}},"23":{"bias":-0.11201760654640926,"weights":{"0":0.15999525950064933,"1":-0.07605745376414316,"2":0.014130198284641972,"3":-0.0036348332291997743,"4":0.11758639707030275,"5":-0.08559677813863943,"6":-0.011645423312895541,"7":0.053527970567152576,"8":-0.054853759931807605,"9":0.1189309463402197,"10":0.15577986622730217,"11":-0.006257505837215291,"12":0.032084328254662974,"13":-0.03153498088439018,"14":-0.0692776539231571,"15":0.039384628607266034,"16":0.1478542404971771,"17":0.04375502895798391,"18":0.03568167565363782,"19":0.03682664480044166,"20":-0.04221269541838793,"21":-0.1166296401901546,"22":-0.05117680077503321,"23":-0.024194663756149974,"24":0.07756761771446173,"25":0.13360592001215751,"26":0.030939826199740353,"27":-0.15900444778058678,"28":0.15043798287384397,"29":-0.16429903463102952,"30":0.1203729358948543,"31":0.0772569521908108,"32":-0.15738319298988318,"33":-0.04656464148635602,"34":-0.01826116353528562,"35":-0.1440206082265443,"36":-0.06685030150816526,"37":-0.06746998951497622,"38":0.1587460031017515,"39":-0.15182583020613635,"40":-0.09543120235567362,"41":-0.11153383862516233,"42":0.1892213872427389,"43":0.19996864189266533,"44":0.1950626439300851,"45":0.015787122251728344,"46":-0.009094171479550554,"47":0.18010564878359875,"48":0.060149358541678855,"49":0.13526682040887716,"50":-0.016568861224490215,"51":-0.029556296497366727,"52":-0.17688155366705374,"53":-0.05279824332093969,"54":0.041235187182212994,"55":0.07672541921525859,"56":0.0444098169749122,"57":-0.16204676622057146,"58":-0.05574614177404488,"59":0.0716057852171848,"60":-0.14249106625108385,"61":-0.10475673973794179,"62":-0.08300858526569749,"63":0.0802777686943232,"64":0.0631290276008075,"65":-0.1654186745156357,"66":0.011983399527394275,"67":-0.16301383272765851,"68":-0.18078108837202422,"69":0.18671501774643345,"70":0.033107567130756625,"71":-0.09760756228527383,"72":0.0188608953659019,"73":0.00646691095511558,"74":0.08874181280410146,"75":-0.002220666996258044,"76":0.01323197581608715,"77":-0.07120112022166106,"78":-0.09644259470201128,"79":-0.02722488468262485,"80":-0.07303508798602577,"81":0.045080489275250046,"82":-0.0663945112310781,"83":-0.13486725280181894,"84":0.10517889541195787,"85":-0.005992557680255966,"86":0.1156467174595452,"87":0.14062870826254567,"88":-0.007268449838608114,"89":0.17654921800049211,"90":0.07710245451538911,"91":0.15942350295145932,"92":0.12568040612918083,"93":0.034622940646639205,"94":-0.00044127684537090657,"95":0.14018504739219545,"96":-0.19632238513679368,"97":0.01259749392449977,"98":-0.07597680392198622,"99":-0.14596844020069907}},"24":{"bias":-0.019720386412408933,"weights":{"0":-0.01788217270006782,"1":0.1779193620498977,"2":-0.1564440162785429,"3":-0.05470027620179871,"4":0.18352221090049886,"5":-0.14031673377254672,"6":-0.09915115463580516,"7":-0.031574341880949604,"8":0.15102641619902124,"9":-0.176870778586746,"10":0.07839928347712173,"11":-0.0067113816796393775,"12":0.013616451575242104,"13":-0.18793631019137783,"14":-0.20220344770945164,"15":-0.1214248791778472,"16":0.0954473398357687,"17":-0.12835830452365946,"18":0.02295623772971999,"19":-0.005228141271070969,"20":0.10096545810372859,"21":0.13363140621887584,"22":-0.1210898691159076,"23":0.1169101148395063,"24":-0.1817414058791565,"25":-0.07266852980111972,"26":0.186389090180265,"27":-0.17196477322818962,"28":0.04349885384801237,"29":0.19423442957233905,"30":0.05280231943810297,"31":0.15370681086800514,"32":-0.06121085545189398,"33":0.15218302496970007,"34":0.04469978246843974,"35":0.08881273253446133,"36":-0.06046614650562593,"37":-0.021080939629096993,"38":0.031476884515448375,"39":0.12684116841863338,"40":-0.08223553090814506,"41":-0.13161246549349875,"42":-0.1263730133140765,"43":-0.04006730849305658,"44":-0.07064590511048141,"45":0.05988992478533458,"46":0.10055415071305351,"47":-0.08193272044012026,"48":-0.1927372108954059,"49":-0.18388489296513774,"50":0.08814797484525443,"51":0.14406925748824662,"52":-0.10999462161167338,"53":-0.1895764920380993,"54":-0.11849802068106917,"55":-0.19425321056386388,"56":-0.14812176775022393,"57":-0.009957104455698697,"58":0.14050642900769494,"59":0.03448395323600139,"60":0.025863993516896683,"61":-0.13973404512505191,"62":0.09947174840712754,"63":-0.14618108204644667,"64":-0.05729382757255065,"65":0.010840106416011798,"66":-0.15472671737682997,"67":0.013117293492469638,"68":0.16723144162658626,"69":-0.18218854585833696,"70":0.0898004429994947,"71":-0.05002559313303938,"72":-0.1728301044668397,"73":0.05742286194038331,"74":0.1335403295171153,"75":0.18145722785320095,"76":-0.025012688107180086,"77":-0.060397743739282854,"78":-0.07815742500441378,"79":-0.0538824621533514,"80":-0.18661320212698376,"81":-0.0658757762980045,"82":0.015627389665160328,"83":-0.19903906802483184,"84":-0.12619463153677346,"85":0.046400036292585635,"86":-0.08543994131271433,"87":-0.021124283394086125,"88":-0.06948626860513847,"89":-0.19086589157065262,"90":0.16141589626991704,"91":-0.19697381924035856,"92":0.1164070944301312,"93":0.15871000263936372,"94":-0.18242198880723656,"95":0.04785321635965327,"96":0.07553103389035677,"97":0.17449739236456782,"98":0.09958726090323987,"99":0.13465724703429488}},"25":{"bias":-0.11328658634868273,"weights":{"0":-0.3152619224430501,"1":-0.41583257182870736,"2":0.05118665131876395,"3":-0.5488178107829899,"4":-0.040572263964023886,"5":-0.4798138463812084,"6":-0.3202764658539653,"7":-0.2655235650207654,"8":-0.24343121260134537,"9":-0.24228068601375377,"10":-0.048415801737647736,"11":-0.5567173828247853,"12":-0.17538201228376177,"13":-0.3486920462485433,"14":-0.15720445385562898,"15":-0.43583870530718277,"16":-0.2683053545229562,"17":-0.24126998478268186,"18":-0.07370066937811731,"19":-0.2974847581818279,"20":-0.2146279014968549,"21":-0.3456151885920985,"22":0.07184371461957702,"23":-0.5566994795638269,"24":0.11054297238265061,"25":-0.48358848453871395,"26":-0.011757886255402647,"27":-0.20179863841449103,"28":0.10351848639450324,"29":-0.37793400682459827,"30":-0.11092084916352359,"31":-0.31563174363380725,"32":-0.17577911438435004,"33":-0.16100645012382062,"34":0.15644048743169084,"35":-0.011071825607679386,"36":0.00617123681325399,"37":-0.1849240222590861,"38":0.10273917529665014,"39":-0.1513267700672727,"40":0.08131352645907736,"41":-0.1046859929495048,"42":-0.23209269574269756,"43":0.0736899656160123,"44":-0.3553986186034972,"45":-0.05656287251137984,"46":-0.13131375679595997,"47":-0.12732788836627437,"48":-0.057070376796044577,"49":-0.009108950441115732,"50":-0.1936051811074493,"51":-0.06308737449284822,"52":-0.4423288384864957,"53":-0.16922680800887957,"54":-0.28540208419202007,"55":0.028408761296368774,"56":-0.2528181031401032,"57":0.07496079238891125,"58":-0.2880535105793963,"59":-0.17188516355004896,"60":-0.32006045513246273,"61":-0.08621892809589186,"62":-0.2428412602548455,"63":-0.3544959090381903,"64":-0.24128353905738767,"65":-0.27271802667477374,"66":-0.36367886808655053,"67":-0.19420613525512992,"68":-0.3911476473379797,"69":-0.2947082345246483,"70":-0.265612439869338,"71":-0.23504782220161333,"72":-0.3577924177771089,"73":-0.4060241031990611,"74":-0.09371563719001216,"75":-0.5167634236740312,"76":-0.04817613129750624,"77":-0.5655926875060726,"78":-0.2865317913596259,"79":-0.43527195985931516,"80":-0.3597710319828224,"81":-0.4440166361092589,"82":-0.0215685654045751,"83":-0.3962770613763805,"84":-0.09455510931992846,"85":-0.48402099966599565,"86":-0.038957118674344815,"87":-0.35861752427725774,"88":0.029818955262150258,"89":-0.5561898114494828,"90":-0.24327507314391036,"91":-0.35764285105847576,"92":-0.1518434674970559,"93":-0.2899077906049185,"94":0.05395030915151978,"95":-0.23256099550286324,"96":-0.17810295761049272,"97":-0.4006091336977913,"98":-0.18287364544478008,"99":0.05753828490014732}},"26":{"bias":-0.05891339136287571,"weights":{"0":0.07031964166089893,"1":0.12446022825315595,"2":-0.025745500903576607,"3":-0.03148439126089214,"4":0.0840484634041786,"5":0.1299626497551799,"6":0.10371401654556395,"7":0.01832275660708546,"8":-0.03820713171735407,"9":-0.17652038326486946,"10":-0.09590692650526762,"11":-0.14746360583230855,"12":0.17343121469020845,"13":-0.11285350909456611,"14":0.07197387125343085,"15":0.013349027838557959,"16":0.13519487036392092,"17":0.09271478522568943,"18":0.14837698377668856,"19":-0.15347286062315108,"20":-0.16411095820367338,"21":-0.16061462676152588,"22":0.14285785909742116,"23":0.1810648926533759,"24":-0.13633080525323749,"25":-0.12426793444901706,"26":0.14172400794923307,"27":-0.09753122115507723,"28":0.041693837847560644,"29":-0.16406992664560677,"30":-0.18125081043690444,"31":0.14996547028422358,"32":-0.004306423757225286,"33":0.001970786508172756,"34":-0.13962172474712134,"35":0.1392541009001434,"36":-0.07127808500081301,"37":-0.15890384409576655,"38":0.001835886482149357,"39":-0.1527295266278088,"40":0.11799341784790157,"41":-0.07654971638694406,"42":0.10635322295129301,"43":-0.08155675390735269,"44":-0.15113665089011194,"45":-0.14510043561458588,"46":-0.1684854798950255,"47":0.051969407685101054,"48":-0.17292961087077857,"49":-0.17504249326884747,"50":0.02878631409257651,"51":0.06874154647812247,"52":-0.09050471717491747,"53":-0.17544249361380937,"54":-0.10917263636365533,"55":-0.028748280834406614,"56":-0.08552155578508974,"57":-0.08781057531014086,"58":0.1660746095702052,"59":0.08761935085058215,"60":-0.0028803031891584396,"61":0.064248791243881,"62":-0.1572130278684199,"63":0.040004204493016005,"64":-0.13496923260390759,"65":0.16807074351236223,"66":-0.1717124524526298,"67":0.051707576122134946,"68":-0.020544882770627743,"69":-0.03342359531670808,"70":0.1633265963755548,"71":0.16544363787397742,"72":-0.1856428231112659,"73":0.1732565861195326,"74":-0.046328727900981914,"75":0.043922251928597694,"76":-0.1578698879107833,"77":0.017026583291590208,"78":-0.01600928502157331,"79":0.13489210708066823,"80":-0.09677125914022328,"81":0.15791104128584266,"82":-0.006814256403595204,"83":0.10977632766589523,"84":-0.1267440177500248,"85":-0.15911719417199494,"86":0.08283346854150297,"87":-0.07213591430336239,"88":-0.039712825044989575,"89":-0.09378156010061503,"90":-0.1624742029234767,"91":-0.11464256625622511,"92":-0.16042323615401985,"93":-0.04171050153672695,"94":0.00663174400106073,"95":-0.05782247120514514,"96":0.10850718524307013,"97":-0.02759227398782968,"98":0.049442615546286095,"99":-0.1020469435490668}},"27":{"bias":0.15774143794551493,"weights":{"0":-0.12743322281166913,"1":0.14627176793292168,"2":-0.15312490919604899,"3":0.05307236062362791,"4":-0.12120862882584334,"5":0.09869941659271719,"6":0.1382922064512968,"7":-0.11978712379932405,"8":-0.06808191314339637,"9":-0.01271346677094698,"10":0.19769331393763423,"11":-0.0011078286916017532,"12":0.12215652121230963,"13":-0.17595739448443057,"14":-0.16260350989177824,"15":-0.1354431857354939,"16":0.17473401380702852,"17":-0.186398068908602,"18":-0.025923005305230618,"19":0.014767669420689356,"20":0.03851193329319358,"21":-0.006942205317318428,"22":0.1064880612306297,"23":-0.008489723317325115,"24":0.05752716735005381,"25":-0.19889640444889667,"26":-0.04321450088173151,"27":-0.17496715029701593,"28":0.026379991415888066,"29":-0.1805669840425253,"30":-0.133515696041286,"31":-0.06575323184952139,"32":0.15986228017136456,"33":0.1567038048990071,"34":0.18671832587569953,"35":-0.13974506864324213,"36":0.02556955236941577,"37":-0.15807332675904037,"38":-0.12432796005159617,"39":0.015545067097991694,"40":-0.07562233153730631,"41":-0.14184803562238812,"42":0.18144229212775825,"43":-0.10087634939700366,"44":0.06727822236716746,"45":-0.0658748760819435,"46":0.04103349680081009,"47":-0.023479066789150238,"48":0.06694758152589203,"49":0.13792395666241647,"50":-0.02039677426218986,"51":0.04426319627091288,"52":0.1507807261310518,"53":-0.0012808553874492645,"54":-0.07434062985703349,"55":-0.13016844121739268,"56":-0.18335728039965035,"57":0.13748602662235498,"58":0.08450566045939922,"59":0.08600115273147824,"60":0.10267655346542598,"61":-0.15394433308392763,"62":-0.18768211593851447,"63":-0.0878312224522233,"64":-0.08548637442290784,"65":0.1927577801048756,"66":-0.08150644339621067,"67":-0.09055421035736799,"68":0.11830636933445932,"69":0.08456860575824976,"70":-0.08767821928486229,"71":-0.18861525356769562,"72":-0.1564377480186522,"73":0.050112109258770965,"74":-0.09278159150853754,"75":-0.1532729427330196,"76":0.0818417824804783,"77":0.12230041278526188,"78":-0.18282680129632356,"79":-0.08905377751216292,"80":-0.07367627704516053,"81":-0.1930795818567276,"82":-0.13639628225937486,"83":-0.03236848087981342,"84":-0.1185863271355629,"85":0.032580432109534735,"86":-0.08835911247879268,"87":0.16133063258603214,"88":0.07996422173455359,"89":-0.057425521407276386,"90":-0.13796296184882523,"91":-0.16433626487851144,"92":0.033466142229735846,"93":-0.012980123329907667,"94":-0.020703288726508617,"95":-0.15123530747368932,"96":0.003745806124061335,"97":-0.06973099997267126,"98":-0.007604877091944212,"99":-0.024649558309465636}},"28":{"bias":-0.19781851919399726,"weights":{"0":0.007021110843214229,"1":0.16436573417698755,"2":-0.008592706301025136,"3":0.07961678840937453,"4":0.07313705958727841,"5":-0.04061170065461044,"6":0.0549209856085861,"7":0.2100830608203199,"8":0.020667097869553577,"9":0.17142250814907736,"10":0.010905306994807809,"11":-0.08206523806953835,"12":-0.0015510708520129785,"13":-0.12228766822644394,"14":0.024482543071923636,"15":-0.02141747519567406,"16":0.0031997942870535955,"17":0.13497131214383473,"18":-0.0724451395544696,"19":0.12829336058254612,"20":-0.08268945005210777,"21":0.1778530905119038,"22":-0.03502756070765415,"23":-0.07546429576351181,"24":0.0877620897958917,"25":0.01568751292755294,"26":-0.16167252391996556,"27":0.11148767954075264,"28":-0.15787811790141404,"29":-0.03618207010546554,"30":0.06680084719774185,"31":0.11985591714631094,"32":0.004878449648509647,"33":-0.020656653205017427,"34":-0.14557887276570075,"35":0.05308577131649872,"36":-0.16230292773284075,"37":-0.1125408595519104,"38":-0.11868960360035914,"39":0.015187135050263156,"40":-0.03865433190437399,"41":-0.06896457603787032,"42":-0.03271724241346948,"43":-0.11515050682918634,"44":-0.18172429675397322,"45":0.1351549422696558,"46":0.09956563769807394,"47":-0.10700066352380315,"48":-0.15121251911236339,"49":-0.18160830067590603,"50":0.21413089325663906,"51":0.026620526685111497,"52":-0.076875788964418,"53":0.049878365712903716,"54":-0.0636504985532368,"55":-0.07709885204330802,"56":0.12354380728215598,"57":0.045446708964847315,"58":-0.11192393396349179,"59":0.17092935617893215,"60":-0.09528698671544815,"61":-0.18077707503168158,"62":-0.13130844315778886,"63":0.027077178840375114,"64":0.020586502332795884,"65":-0.12094331814387815,"66":0.015698477406610293,"67":-0.1482983789946255,"68":0.23221782070081365,"69":0.1828788413491061,"70":-0.06288813001979467,"71":0.10658862718447833,"72":-0.08774581713173864,"73":-0.07272879884034099,"74":-0.08722797477189788,"75":-0.15638053748981723,"76":0.03707421604971963,"77":-0.13865186363453372,"78":0.13933614582254095,"79":-0.12078881960040566,"80":-0.1627116388565028,"81":0.20271385036547943,"82":0.14075688198974215,"83":0.1541524609509181,"84":0.06703019398038701,"85":-0.003080491118696538,"86":0.06028808853363111,"87":0.16407781047946088,"88":0.03688851943945005,"89":0.06706449208033904,"90":0.16181807606255136,"91":-0.11064873605355778,"92":0.08353540578540246,"93":-0.07592147927177732,"94":0.02544091583844102,"95":-0.07153170446280754,"96":-0.15200491126614304,"97":0.20589100794462603,"98":0.2063099059869238,"99":0.08318572822494179}},"29":{"bias":-0.012850388587526646,"weights":{"0":0.1568518343997755,"1":0.1896106076408867,"2":-0.177601097462549,"3":-0.13540869358262062,"4":-0.12104447775877931,"5":0.02477189430628768,"6":-0.15504294758088807,"7":-0.17325484296825366,"8":0.08046787201069378,"9":0.19469036311632978,"10":0.1584029851166167,"11":0.038950590489256386,"12":-0.08775241219796161,"13":-0.13520658541098685,"14":0.010384340273366164,"15":0.1058282141996073,"16":0.10087668436221855,"17":-0.15793258343488034,"18":0.14501646139301438,"19":-0.13508741106244876,"20":-0.04510322357933733,"21":0.1197702880746501,"22":-0.016800562342961727,"23":-0.10823984679531905,"24":0.05288862934861569,"25":-0.028273764841494867,"26":-0.01453731987099857,"27":0.1476786388009155,"28":-0.1737261574290296,"29":0.060948552400912834,"30":0.010447852310392268,"31":-0.09902905941690182,"32":0.08499834258845351,"33":0.012439011191042681,"34":0.1940545119067314,"35":0.07433042396275351,"36":-0.10881242532918768,"37":0.1005459111532737,"38":-0.18028867660175907,"39":-0.06187275430424322,"40":0.15496719234871872,"41":-0.19060864663071378,"42":0.030623633582285672,"43":-0.1777315773426392,"44":0.08603727878906578,"45":0.09281080144660876,"46":-0.18201901483830235,"47":-0.1945704622345935,"48":0.19196171209042365,"49":-0.18019786837072568,"50":0.04052419855936743,"51":0.13169077233011442,"52":-0.0816459723213799,"53":-0.1952519675374903,"54":-0.0875307643967411,"55":0.18890061894124968,"56":-0.06906162943264675,"57":0.07028409618577582,"58":-0.07917669570407344,"59":0.018846974789823456,"60":0.14245404978097603,"61":-0.08209441556808814,"62":-0.05005513852327448,"63":0.06085688316367625,"64":-0.07008965783741483,"65":0.09392420083353363,"66":-0.12505908370938318,"67":0.02867919158469995,"68":0.20398094817075715,"69":0.14720017358877605,"70":0.19801190621230588,"71":-0.001565517554345471,"72":-0.02917615357030465,"73":-0.05008474819950088,"74":-0.05781945655951491,"75":0.18598342387380734,"76":-0.013099755292723971,"77":-0.11362936143933779,"78":0.16403733363957965,"79":0.015192477847214522,"80":0.12989837662555762,"81":0.2085445742048116,"82":0.08766312408499899,"83":0.20659964431224773,"84":0.18240500944905466,"85":0.20730373106285171,"86":-0.13646329897216972,"87":0.10254422016277404,"88":0.12628501611814266,"89":0.18068825590289078,"90":-0.16255567097052567,"91":-0.11653446301681832,"92":0.1895248828654188,"93":0.13094063659811994,"94":-0.04703290106793881,"95":-0.1782372998929857,"96":-0.02844541666712192,"97":-0.06503415256798077,"98":-0.13405606632539271,"99":0.04465851779285269}},"30":{"bias":-0.17955820476636292,"weights":{"0":0.06641923272982242,"1":0.049731320049613725,"2":-0.11759732505306603,"3":0.15114459600299596,"4":-0.18252977998927236,"5":0.18394577456638217,"6":0.10819219071418046,"7":0.017232009768486017,"8":0.055014710314571835,"9":-0.030372842773795122,"10":-0.16236025150865319,"11":-0.1451903828419745,"12":-0.13305073855444788,"13":-0.07294840468093752,"14":0.06184894116595385,"15":-0.026081088557839388,"16":-0.04365756353363395,"17":-0.017484327591955673,"18":-0.15582516910508276,"19":-0.060763630177825684,"20":-0.07578570125624538,"21":0.0534622880630195,"22":0.12672505602240564,"23":0.15664772456511855,"24":0.0852550043724477,"25":0.07006873656064272,"26":0.1829009847715497,"27":0.15801471602171663,"28":0.004699403420090675,"29":-0.0175962895154953,"30":0.08282652739435437,"31":-0.06056679310277105,"32":-0.06817876184359192,"33":-0.15279793543741108,"34":-0.16105089550837876,"35":-0.07930439077317715,"36":-0.1318812052719295,"37":0.07545210244134071,"38":0.035667421109974395,"39":0.009322782699018706,"40":0.11555419312790038,"41":-0.07587458146736026,"42":-0.13761615157127383,"43":-0.017125976737588644,"44":-0.0017884859815239795,"45":-0.09445025557652116,"46":0.18469041371718048,"47":-0.12125189127400518,"48":-0.022251021582633257,"49":0.08526741852983832,"50":-0.01733634388074279,"51":-0.1595381765626371,"52":-0.04760809009894729,"53":0.04628275437280535,"54":0.14795941077172758,"55":0.13805077848955988,"56":0.009705254528671492,"57":-0.14106497569009663,"58":0.19254948254674675,"59":-0.0005281013436615467,"60":-0.16761341076344252,"61":-0.13592134127393365,"62":-0.0047809830866754055,"63":-0.06068963315337897,"64":0.14221499422565104,"65":0.15409939913079146,"66":0.07503884444013237,"67":0.019852754659950733,"68":0.03134082322940229,"69":0.08186723394319417,"70":0.1362375492230058,"71":-0.054176777042448526,"72":-0.08185470271855594,"73":-0.060837384313344955,"74":0.17859594225883485,"75":-0.10680730491876603,"76":-0.07964425729587675,"77":0.17701257495209577,"78":-0.02127554444596172,"79":-0.1820349557325244,"80":-0.030252101365476847,"81":0.16944774091243747,"82":0.012208649050444359,"83":0.1063292249105871,"84":0.12014232166111471,"85":-0.029562268964946264,"86":-0.13864686191082,"87":-0.1642367171123624,"88":0.012921878509223467,"89":-0.13774063233286143,"90":-0.01812695972621442,"91":0.05156927909702064,"92":-0.059243520069867384,"93":-0.1537976163439453,"94":0.04387576654553413,"95":0.17568992609158157,"96":0.034320621658116585,"97":-0.15497964965179564,"98":-0.19948270982131364,"99":0.0646809426136315}},"31":{"bias":-0.1418052648503517,"weights":{"0":0.07804187242974886,"1":-0.12637847944567382,"2":0.16824833150123608,"3":0.11072673665724847,"4":0.21702805790220747,"5":0.18103948720003266,"6":-0.06446155304918638,"7":-0.0034948965173962577,"8":-0.004003677935252102,"9":-0.04628160974937518,"10":-0.16985993753085485,"11":0.07887762589266407,"12":-0.1611238034897541,"13":0.021475287560594063,"14":-0.03547687982107156,"15":0.07876107109042613,"16":-0.15399645152399888,"17":-0.12572823730513005,"18":0.09294902053763521,"19":0.1562665130715323,"20":-0.04176393472487683,"21":0.08357371159053868,"22":0.13935821601291548,"23":0.011782025985548235,"24":-0.04228983619148485,"25":0.1880147448060438,"26":-0.013989075505087288,"27":0.17096046513269467,"28":0.11687422315691959,"29":-0.05291686030104756,"30":0.05236707761215775,"31":-0.08798990864306688,"32":-0.15328681383788417,"33":-0.07026873501017691,"34":-0.132544671950834,"35":-0.12738350117579103,"36":-0.09002003287434038,"37":0.17247322062030435,"38":0.16088710615222415,"39":-0.18410319443792106,"40":-0.0008912709852850817,"41":-0.1368347299285233,"42":0.1343031521007388,"43":-0.15228858962655067,"44":0.22050269597354108,"45":-0.09725580904632808,"46":0.052819409184250425,"47":-0.014462937507778412,"48":0.0429730583954373,"49":0.019954883849000557,"50":0.13701785637629246,"51":0.12972877394730972,"52":0.14042744010679634,"53":0.1635791087944079,"54":0.09048832266137401,"55":-0.1271968884903919,"56":0.11514497336881163,"57":-0.1419032275255751,"58":0.16389897457435093,"59":-0.05313209218258413,"60":0.21174372331511898,"61":0.10442997648095337,"62":-0.06790816309589218,"63":0.1952196519902628,"64":0.03874728287842799,"65":0.04879259196147695,"66":0.10172282419440082,"67":-0.029093390839293635,"68":0.07255495199274947,"69":0.01206139320502148,"70":0.25959605955791404,"71":-0.006765865768668303,"72":-0.0696995764696419,"73":0.1932278527561118,"74":-0.017821363260170208,"75":0.17659532674690137,"76":0.05742155993996025,"77":-0.10193285760050384,"78":0.17389638239995045,"79":0.08796240200460213,"80":0.30889734916866224,"81":0.22240072504298922,"82":0.2083219877678196,"83":0.205057981231732,"84":0.17680950735241577,"85":0.1792815104487535,"86":-0.06350780453055703,"87":0.23659596089477442,"88":0.2680517988853681,"89":-0.054504742378194186,"90":0.03152475632881399,"91":0.12731279507483145,"92":0.3129186628369506,"93":0.16576689528505106,"94":-0.012882312168627712,"95":0.17091840161214372,"96":-0.031500231543509026,"97":0.1398997548056652,"98":0.26162443100839133,"99":0.018163322659384154}},"32":{"bias":0.007446994247542064,"weights":{"0":-0.12181968067227325,"1":-0.23479696616820175,"2":-0.05322038002199048,"3":-0.24157396100821413,"4":-0.05401260780025561,"5":0.08582909290841532,"6":0.0227118603185619,"7":-0.011666834644476546,"8":0.14900199178600196,"9":-0.003955669331847724,"10":-0.03264236464101312,"11":-0.19733935281622797,"12":0.0010342657273593803,"13":0.1343163861751975,"14":-0.09341753166501215,"15":-0.04077516572278229,"16":-0.0176771786035967,"17":0.11021461569271705,"18":0.05231355605864168,"19":-0.06689653581526725,"20":-0.18616578775172601,"21":0.09760446902698604,"22":-0.17176704962634212,"23":-0.10614150110912872,"24":-0.04022449884022451,"25":0.08266191879009119,"26":0.11054457309165283,"27":0.05449889987184836,"28":-0.16902118838743796,"29":-0.06442558048436663,"30":-0.0740792372156186,"31":0.024009984718510926,"32":0.005654542659042993,"33":0.055155033394414535,"34":-0.21676171850065104,"35":0.17545976789325382,"36":-0.02562107912247793,"37":-0.12489835006629561,"38":0.06478053239261355,"39":0.15421042104708005,"40":-0.0002568004407548859,"41":-0.12377774166949193,"42":0.12572360783598874,"43":0.09916858510859822,"44":-0.06802949608080008,"45":0.05583574178776675,"46":-0.18264345215151626,"47":-0.08525461336300615,"48":-0.14803459553184017,"49":0.1867543532941399,"50":0.0027130532673616506,"51":-0.10735962463595089,"52":-0.15308233938054125,"53":-0.023830379872669824,"54":-0.13499075367687857,"55":0.09030436957435604,"56":0.11652689022892004,"57":-0.11320392284767891,"58":0.12483928994267819,"59":-0.06392204767833816,"60":-0.14127190855259752,"61":0.007833971792480868,"62":-0.2564732668868738,"63":-0.029735459438032245,"64":-0.2161977007362295,"65":0.16983174236516987,"66":-0.21040130289818043,"67":0.10358235856338377,"68":-0.019155127701697607,"69":0.006168736943208287,"70":0.12041900084650348,"71":0.1391189381211746,"72":-0.10339957368458755,"73":0.10192991248428679,"74":-0.0533378965685479,"75":-0.04533833747358693,"76":-0.25962926399774966,"77":-0.19996664571015466,"78":-0.05873143563246639,"79":0.09535108749534699,"80":-0.13931210560930435,"81":0.0017258819220853346,"82":-0.17857324065830343,"83":-0.19444901354987654,"84":0.04591505092874962,"85":-0.0368121770911543,"86":0.07639102240882104,"87":-0.2423667778536892,"88":-0.0363882903228273,"89":-0.02066641648261248,"90":-0.005475532207465532,"91":0.0753920180447573,"92":-0.15301268490217948,"93":0.08178287804723584,"94":-0.18981517739446951,"95":0.01181371132213049,"96":0.06500014439607771,"97":-0.18254888922743814,"98":0.11633755594886831,"99":-0.24182894567105315}},"33":{"bias":-0.027240973802693132,"weights":{"0":-0.06576004607907018,"1":0.30903400041604406,"2":0.06300877174677241,"3":0.08997891797214769,"4":-0.1232254195506159,"5":-0.03397714170054847,"6":0.06937220696258474,"7":0.24848464494789463,"8":0.11058223779003817,"9":0.34375770733206773,"10":0.0011471260314241073,"11":0.03205400062515243,"12":0.054437540949342715,"13":0.1815838470293692,"14":-0.08653187950101655,"15":0.34376057397504434,"16":0.07471938372276302,"17":0.004629452570427182,"18":-0.08620446983557314,"19":0.3343663845935086,"20":0.21036449162207935,"21":0.23289030911683523,"22":-0.08908296120702228,"23":0.34404078423132256,"24":-0.10908963266531387,"25":0.031702058749531525,"26":-0.1408912804482932,"27":0.25224029749194365,"28":-0.1276534915447746,"29":0.31415969004847083,"30":0.04369510414959369,"31":0.2605299608135948,"32":-0.04733219211207135,"33":0.12380387784792178,"34":0.043436163107341476,"35":0.09558222670813903,"36":0.0007492625836342626,"37":-0.05553648297923964,"38":-0.11957516131972576,"39":0.01761640384775551,"40":0.06372075120513783,"41":0.253826460916337,"42":-0.051124074017024186,"43":0.1310248137920044,"44":-0.1261591147057237,"45":-0.06687057086838544,"46":0.10787436474168068,"47":0.030474828544142775,"48":-0.09980700845638701,"49":-0.06188168463161084,"50":-0.09708402771048348,"51":-0.1571153768152585,"52":0.022452738163344456,"53":-0.09901046425110006,"54":-0.0531527087665553,"55":0.1688781870714734,"56":0.025021028744912462,"57":-0.08040502012155085,"58":0.18044771385549185,"59":0.14326794537171297,"60":0.14944896693541568,"61":-0.0350563936812719,"62":-0.049493338174525274,"63":0.08651177821690122,"64":0.29388225844679383,"65":-0.0325163232767689,"66":0.10859139974745471,"67":-0.12737349185996827,"68":0.06524032334831335,"69":0.04384306568991125,"70":0.27578537724015095,"71":0.1626479254095993,"72":0.3304700095537539,"73":0.16159488488281457,"74":0.23919404427105875,"75":0.06510877386502349,"76":-0.05968838461570784,"77":0.24942214922610928,"78":-0.015610185433599936,"79":0.23018315299117134,"80":0.23682057966340533,"81":-0.0307189815474846,"82":0.07513438584932502,"83":0.32872155090947536,"84":-0.014792910028604703,"85":0.1513428960514981,"86":0.09110902980198012,"87":-0.035609762605111187,"88":-0.061684438687819934,"89":0.2722266556932544,"90":0.009834234486270547,"91":0.07026385088660697,"92":0.21250360796545395,"93":0.05875598797244206,"94":-0.14653215433777722,"95":0.28456137590202274,"96":0.2098786819819057,"97":0.2687544169632978,"98":0.09529246188604283,"99":0.31517567629572163}},"34":{"bias":0.18107307609170675,"weights":{"0":0.08428578432649375,"1":-0.0995290158316493,"2":-0.18389180386438966,"3":-0.0406984008848667,"4":0.05823606001213194,"5":-0.042583206295967096,"6":0.09099243097007276,"7":-0.18040310051292183,"8":0.01214234046638013,"9":-0.07379279797896743,"10":-0.07910597808659077,"11":0.12199218887835744,"12":-0.17628664709627628,"13":0.04746957775205374,"14":0.12092752940952778,"15":-0.1701852452941239,"16":0.18153178077191118,"17":0.19686056599020957,"18":0.057147418335080136,"19":0.19928415771573782,"20":-0.15608125189319255,"21":-0.14513641940429808,"22":-0.01117038819938898,"23":-0.03470911495387555,"24":0.05626651868224142,"25":-0.07459521442651748,"26":-0.1377556479535997,"27":0.05076551027595999,"28":-0.014495599083602428,"29":-0.15885057104751468,"30":-0.09492203453555703,"31":-0.15842260587960483,"32":-0.0593552989885211,"33":0.08681834805756805,"34":0.012366691976785665,"35":-0.1794084847904742,"36":-0.09106065332889557,"37":-0.08712231256067754,"38":0.16255275094881655,"39":-0.004128954187035572,"40":0.13311937814578417,"41":0.04661242961883544,"42":0.19305876204743982,"43":-0.030675788689404737,"44":0.03907550796866416,"45":-0.10311911525204778,"46":0.12896116953343156,"47":-0.15565381748601795,"48":0.16349695101380352,"49":0.14746850235387682,"50":-0.017040233034640556,"51":0.16029989998787642,"52":-0.19959058947861197,"53":-0.050102397333830595,"54":-0.008345424756407732,"55":-0.08155056294053793,"56":-0.1273399818688631,"57":0.08552160169929268,"58":0.1818308078683913,"59":-0.09958637049421669,"60":-0.15564176253974438,"61":-0.1146918248385191,"62":-0.18533802712336184,"63":0.18316218350082636,"64":-0.028978436440229405,"65":-0.046953875571489334,"66":-0.18846388934180142,"67":0.18739852793514727,"68":0.19954725299030546,"69":0.13660124540328983,"70":0.019474844727665197,"71":-0.06630691941827535,"72":-0.08608505418524147,"73":-0.09841575268656017,"74":0.011206497717648756,"75":0.1408018165268004,"76":-0.017048312164843094,"77":-0.036733965482562775,"78":-0.07988579496741295,"79":0.05173087799921633,"80":-0.14399896673858167,"81":-0.1856891017407179,"82":0.06875632368028162,"83":-0.12243475336581469,"84":-0.09131000172346831,"85":-0.18817469496279957,"86":0.012103109806776036,"87":-0.1682038759812713,"88":0.19346469035372138,"89":-0.10655212588608265,"90":-0.16335666636005045,"91":-0.16880996320396663,"92":-0.06898780437186361,"93":0.07206093426793814,"94":0.07065419908612969,"95":0.151475440710783,"96":-0.10744563778862358,"97":0.16468444662168624,"98":0.19764720387756823,"99":0.06763759925961493}},"35":{"bias":-0.016526005970243927,"weights":{"0":-0.04451639314957135,"1":-0.010059581492669585,"2":-0.04895744970885879,"3":0.07031126017992528,"4":0.014618605568950468,"5":0.039497078540962835,"6":-0.019920863395317838,"7":-0.08063480137909253,"8":-0.0774333496392106,"9":-0.05098295377506879,"10":0.06099381996439168,"11":0.1870351503863171,"12":0.18402242111084152,"13":-0.051113833123224546,"14":-0.10632876649406503,"15":0.18839767512935426,"16":0.050612260282065474,"17":0.16411723144414783,"18":0.0398612241070559,"19":-0.1772680059589783,"20":-0.17905168940077418,"21":0.09333989061217787,"22":-0.14188252591624947,"23":-0.013606017786020093,"24":0.07992306650596852,"25":-0.051460701293243816,"26":0.15120153951292922,"27":-0.16423894940242148,"28":-0.10449534531118115,"29":0.2076400727264069,"30":0.05161187410937266,"31":0.13556353716043137,"32":-0.013354395170378388,"33":0.06801265494347565,"34":-0.1525864284795376,"35":0.055440293348176344,"36":0.001212682314178418,"37":0.11625539791629289,"38":0.03555903705388883,"39":0.06277942107146392,"40":-0.1235324045533813,"41":0.19666141777045862,"42":0.0006346367945983354,"43":0.17406237010335165,"44":-0.010444426477891053,"45":0.012228393229007522,"46":-0.10774469258686359,"47":-0.04265504367035467,"48":-0.005045071585063383,"49":0.1429522637213921,"50":-0.18039675177814993,"51":-0.1026917239340098,"52":-0.14513367481275746,"53":0.07223546393553594,"54":0.16763264385924342,"55":-0.021582920705078903,"56":-0.15810480551086864,"57":-0.11460357531178739,"58":0.18855840459318804,"59":-0.04800156817498522,"60":0.07446056752665453,"61":-0.0075066316851290305,"62":0.06582351822266665,"63":-0.11784316917063752,"64":0.048229081288121166,"65":-0.007249826030619093,"66":0.1850255892117397,"67":0.12304676295686437,"68":0.08372163043052563,"69":-0.11480955683016447,"70":0.056490685019330744,"71":0.13764306104569446,"72":0.03763513558657076,"73":0.04625939199834994,"74":0.20608748388966264,"75":0.16809591744283583,"76":0.13686910881530168,"77":0.0952198148059222,"78":-0.13138350428097553,"79":-0.15514216068161799,"80":-0.06206409801935491,"81":-0.06418881207492828,"82":0.06270794444534174,"83":-0.11026098659976452,"84":-0.13049457360338526,"85":-0.032106226836388696,"86":-0.03546219229544238,"87":-0.17756293997548245,"88":0.17293875453101543,"89":-0.13770902748118707,"90":0.015712753676746637,"91":0.05123924332766786,"92":0.06359468630102406,"93":-0.18018985989979652,"94":0.04927766674981212,"95":0.03728849262839588,"96":-0.07072546240534447,"97":-0.06344768992719396,"98":-0.06891920887081344,"99":0.02787930308066489}},"36":{"bias":-0.1260615468120973,"weights":{"0":-0.08380622977733589,"1":0.15058343461985768,"2":-0.18565499104902133,"3":0.1365667367852089,"4":-0.020940441474020247,"5":-0.03604356594979651,"6":0.12993348108261837,"7":0.10243837484554798,"8":-0.002482221483886021,"9":0.12932417230425847,"10":-0.16078779662370668,"11":0.15270216163561767,"12":-0.1441244297885303,"13":0.20403606656025552,"14":0.08619192957527666,"15":0.06408003268835843,"16":-0.15433037944499597,"17":0.18529455473899126,"18":-0.17009169927256151,"19":0.19104289923713033,"20":-0.12767810125245485,"21":0.004607532912930185,"22":-0.009417550101732914,"23":0.021042834031094908,"24":0.1926263374053266,"25":0.15941836600774814,"26":0.1834701843322576,"27":-0.04418908087940918,"28":0.03487560532303835,"29":-0.14222216876650082,"30":0.08486362543647763,"31":0.10159617866936521,"32":-0.06066408766569284,"33":-0.1528635027849821,"34":0.12386424964992293,"35":-0.05688687609788093,"36":0.07535414484576446,"37":0.08715133797167755,"38":0.038417746984932416,"39":-0.13227575216582077,"40":0.1449790452689227,"41":0.07034819945634625,"42":0.056526333371578266,"43":-0.11853704955417367,"44":0.04572869882965077,"45":-0.15709963040414515,"46":0.19157180226023646,"47":-0.03293206319200539,"48":-0.016675948646056378,"49":0.13452236419555996,"50":-0.1256487116388846,"51":-0.050779510661832054,"52":0.009196338595308644,"53":0.0764668663033629,"54":-0.0575742182534117,"55":-0.041161576007128685,"56":-0.0007869636848676787,"57":-0.13309320780097988,"58":0.14602300774159074,"59":0.017544774609751405,"60":-0.13444223797056973,"61":0.06856228316088324,"62":0.04336135031547248,"63":0.14486935116737276,"64":-0.05002836875725686,"65":-0.09438541768970989,"66":0.05873832328136861,"67":0.09269772222451678,"68":0.07883108936142026,"69":0.04626102981626492,"70":0.16433130659054815,"71":-0.15968283914886977,"72":0.24212408389787973,"73":0.05516988367719285,"74":0.18868635490417415,"75":0.1576261272002719,"76":-0.02839803856013179,"77":-0.06841702029867848,"78":0.0934982809044159,"79":0.12447972524387724,"80":0.23926140533822796,"81":-0.1135746905233718,"82":-0.01985701379850679,"83":0.2241332677553458,"84":0.10639482205121312,"85":0.12563028162369624,"86":-0.137335136062766,"87":0.0485091044951396,"88":-0.07524531211559088,"89":-0.0451885092615709,"90":0.11460937572426623,"91":-0.07207824565300854,"92":-0.12915285327677767,"93":0.13875547120539158,"94":-0.169792252907166,"95":-0.08271838012891203,"96":-0.07481090558880907,"97":-0.02046445809183037,"98":-0.1724483613962537,"99":0.218562696632516}},"37":{"bias":0.020209995359050513,"weights":{"0":-0.039376601524081754,"1":0.18046970663505912,"2":-0.12031296334069315,"3":0.12624537858855822,"4":0.19018144786653127,"5":-0.2049832157071223,"6":-0.04771906202134657,"7":0.17550177152943708,"8":-0.0902320731657726,"9":-0.0820160702082807,"10":0.04365396501214404,"11":-0.06462545899930601,"12":0.061692515111620425,"13":0.055761932187944035,"14":-0.02927599168754492,"15":-0.18213153613987737,"16":-0.029671751040328508,"17":-0.1328414425465782,"18":0.02254066934451361,"19":-0.1322357674341225,"20":-0.09323743480381184,"21":-0.10248558900009579,"22":-0.15515729160749994,"23":-0.19810307933717422,"24":0.01978436494537802,"25":-0.0362959165453817,"26":-0.1981353868563095,"27":-0.18895945861851007,"28":0.19895812381929745,"29":-0.10615322234708784,"30":-0.1949317397455777,"31":-0.015048064576833388,"32":-0.19075798083121825,"33":0.17915054294941757,"34":0.12115782315374785,"35":0.017868759896846845,"36":0.028741978819007318,"37":-0.13948275724400383,"38":0.02749333594513775,"39":0.08846076881376647,"40":-0.1834740057043005,"41":0.131833868126633,"42":-0.024050163132967723,"43":0.18576729552998292,"44":0.006090138989505719,"45":0.002042307145113373,"46":0.10617469249961702,"47":0.11215588031085796,"48":-0.023475480164152056,"49":-0.18384799957195277,"50":0.18590930912873108,"51":-0.04719798638517065,"52":-0.18581825421637846,"53":0.19681415853734513,"54":-0.031379499458521906,"55":0.14229811485793226,"56":-0.17177576523145358,"57":0.10401830979802625,"58":0.15198278490359834,"59":0.07929411833553457,"60":0.1109903485220006,"61":-0.1443180149686039,"62":-0.20091783198098126,"63":-0.13605955853717258,"64":-0.03729070614890239,"65":0.12579763808566435,"66":-0.14508473091873542,"67":0.1328216388833514,"68":-0.029641618355778186,"69":-0.20123628253212805,"70":0.02292017915299756,"71":-0.03357531687800057,"72":-0.0003601268809065235,"73":-0.03990782608807989,"74":0.08121569629778257,"75":-0.142941752674969,"76":0.13717629126054698,"77":0.034326780215072426,"78":0.0795399266822116,"79":0.14433601957629885,"80":0.08791660091746578,"81":-0.07903207414841315,"82":0.055584591914585965,"83":-0.04614715597210083,"84":0.10524097597370188,"85":0.09049977700093272,"86":-0.04692130972230152,"87":0.059936540268771016,"88":0.15759394109204128,"89":0.1305665597335641,"90":-0.15851782151421545,"91":0.14862095329770786,"92":0.11359567275156074,"93":-0.02538101747472852,"94":-0.19155268521318097,"95":-0.14474082236446456,"96":0.1672856067902078,"97":-0.128054318360666,"98":0.06624317407763745,"99":0.1541205876368987}},"38":{"bias":-0.14262511348351836,"weights":{"0":0.032948584761470556,"1":0.03160101706162094,"2":0.053389564622193575,"3":0.04618332888931037,"4":-0.008367224875837576,"5":0.09435573816299436,"6":0.1655468688346446,"7":-0.08581685042008758,"8":-0.17740402445197107,"9":-0.07614906439557673,"10":-0.18718069940805437,"11":0.08409758834168313,"12":0.05760495914146302,"13":0.048923524282872666,"14":0.19075517589226365,"15":-0.13242425592616203,"16":-0.13784670997411014,"17":0.12898289179429412,"18":0.07595034614205359,"19":-0.14136860398575665,"20":-0.08181553995236755,"21":0.007095900643616926,"22":0.06299429554492236,"23":-0.09679220402613282,"24":0.11963475355878472,"25":0.07990334974601865,"26":0.0992929643020034,"27":-0.010309171769768005,"28":-0.008182027377188206,"29":-0.03610423710197211,"30":0.03320752484723927,"31":-0.1402977140620351,"32":0.16817849753424524,"33":0.17857737699523568,"34":0.08784698694944382,"35":-0.18915409445762635,"36":-0.03362744236364962,"37":0.17526935590431098,